{"learner":{"attributes":{"scikit_learn":"{\"_estimator_type\": \"regressor\"}"},"feature_names":["rolling3","lag1d","lag2d","lag3d","temperature_2m_mean","precipitation_sum","wind_speed_10m_max","wind_direction_10m_dominant"],"feature_types":["float","float","float","float","float","float","float","float"],"gradient_booster":{"model":{"gbtree_model_param":{"num_parallel_tree":"1","num_trees":"100"},"iteration_indptr":[0,1,2,3,4,5,6,7,8,9,10,11,12,13,14,15,16,17,18,19,20,21,22,23,24,25,26,27,28,29,30,31,32,33,34,35,36,37,38,39,40,41,42,43,44,45,46,47,48,49,50,51,52,53,54,55,56,57,58,59,60,61,62,63,64,65,66,67,68,69,70,71,72,73,74,75,76,77,78,79,80,81,82,83,84,85,86,87,88,89,90,91,92,93,94,95,96,97,98,99,100],"tree_info":[0,0,0,0,0,0,0,0,0,0,0,0,0,0,0,0,0,0,0,0,0,0,0,0,0,0,0,0,0,0,0,0,0,0,0,0,0,0,0,0,0,0,0,0,0,0,0,0,0,0,0,0,0,0,0,0,0,0,0,0,0,0,0,0,0,0,0,0,0,0,0,0,0,0,0,0,0,0,0,0,0,0,0,0,0,0,0,0,0,0,0,0,0,0,0,0,0,0,0,0],"trees":[{"base_weights":[1.0817364E-6,-5.677721E0,1.4031442E1,-1.2182415E1,-1.4363503E0,1.1483563E1,3.4485664E1,-1.8436666E1,-8.98321E0,8.498642E-1,-5.3752875E0,7.1115675E0,1.6027018E1,3.1029783E1,2.024408E1,-3.319607E1,-1.69065E1,-7.199476E0,-1.0979351E1,-1.8115048E0,4.748408E0,-1.15925865E1,-4.4772573E0,9.088128E0,-1.9763162E0,1.8579432E1,8.42489E0,8.526521E0,3.4320007E1,-1.0149953E1,-1.8257567E0,-3.0043237E0,-1.7147245E1,-6.062482E0,-1.2401107E1,-1.1669403E1,-7.0574203E0,7.6787573E-1,-3.594537E0,6.662173E0,-6.633728E-2,2.0656579E0,-1.2169452E1,-8.855398E0,-3.1427307E0,1.2372452E1,5.5524235E0,-1.0235426E1,-6.263812E-1,2.14747E1,1.54535475E1,1.1677368E1,1.6419013E0,2.1121216E1,3.9953437E0,3.6650444E1,1.4175932E1,7.9878944E-1,-3.4343424E0,-5.5347023E0,-4.0881996E0,-3.3040736E0,-1.4867907E0,1.1656579E0,-3.8835804E0,-3.5361104E0,1.0656579E0,-4.1472206E0,-1.5014782E0,8.94402E-1,-1.0063882E0,-1.8326674E0,-6.010776E-1,3.6914551E0,1.4282805E0,3.5675383E-1,-1.7057954E0,-3.7348268E0,1.3242434E0,3.2613652E0,-2.826098E0,-2.7770355E0,-7.207912E-1,-2.9462633E-1,4.1381407E0,1.5702014E0,1.0624245E1,-3.401376E0,-8.343422E-1,5.6790537E-1,-1.3044977E0,1.2415601E0,6.606146E0,4.8923616E0,2.1933033E0,-1.0222206E0,4.1897235E0,2.3960624E0,-1.1840562E0,7.3656583E0,1.6242434E0,-5.812107E-1,2.0542107E0,9.484345E0,1.3650205E1,-1.163635E0,6.187544E0],"categories":[],"categories_nodes":[],"categories_segments":[],"categories_sizes":[],"default_left":[0,0,0,0,0,0,0,0,0,0,0,0,0,0,0,0,0,0,0,0,0,0,0,0,0,0,0,0,0,0,0,0,0,0,0,0,0,0,0,0,0,0,0,0,0,0,0,0,0,0,0,0,0,0,0,0,0,0,0,0,0,0,0,0,0,0,0,0,0,0,0,0,0,0,0,0,0,0,0,0,0,0,0,0,0,0,0,0,0,0,0,0,0,0,0,0,0,0,0,0,0,0,0,0,0,0,0],"id":0,"left_children":[1,3,5,7,9,11,13,15,17,19,21,23,25,27,-1,29,31,33,35,37,39,41,43,45,47,49,51,53,55,-1,-1,57,59,61,63,65,67,69,71,73,75,-1,77,79,81,83,85,87,89,91,93,95,97,99,101,103,105,-1,-1,-1,-1,-1,-1,-1,-1,-1,-1,-1,-1,-1,-1,-1,-1,-1,-1,-1,-1,-1,-1,-1,-1,-1,-1,-1,-1,-1,-1,-1,-1,-1,-1,-1,-1,-1,-1,-1,-1,-1,-1,-1,-1,-1,-1,-1,-1,-1,-1],"loss_changes":[3.133288E5,7.7231195E4,5.865011E4,2.1943922E4,1.5277482E4,1.9928766E4,1.2159297E4,7.8627266E3,2.5308633E3,1.115185E4,3.4265059E3,9.286742E3,9.4289375E3,8.222055E3,0E0,3.8134375E2,1.0864219E3,2.2313633E3,8.486211E2,2.941597E3,4.017871E3,9.152256E2,3.1623096E3,4.854961E3,1.03047E3,3.0077031E3,2.760579E3,8.2871423E2,4.1748984E3,0E0,0E0,3.6542316E2,1.279E3,1.7094795E3,6.618154E2,5.6291406E2,6.807905E2,2.4007546E3,1.4998354E3,3.2885771E3,8.887068E2,0E0,4.0781445E2,1.5177119E3,1.8782471E3,4.170492E3,1.7733999E3,7.530554E1,7.6777356E2,1.6971406E3,1.1398711E3,2.981755E3,1.5208643E3,8.26333E1,2.3322899E2,2.5282031E3,1.4772654E3,0E0,0E0,0E0,0E0,0E0,0E0,0E0,0E0,0E0,0E0,0E0,0E0,0E0,0E0,0E0,0E0,0E0,0E0,0E0,0E0,0E0,0E0,0E0,0E0,0E0,0E0,0E0,0E0,0E0,0E0,0E0,0E0,0E0,0E0,0E0,0E0,0E0,0E0,0E0,0E0,0E0,0E0,0E0,0E0,0E0,0E0,0E0,0E0,0E0,0E0],"parents":[2147483647,0,0,1,1,2,2,3,3,4,4,5,5,6,6,7,7,8,8,9,9,10,10,11,11,12,12,13,13,15,15,16,16,17,17,18,18,19,19,20,20,21,21,22,22,23,23,24,24,25,25,26,26,27,27,28,28,31,31,32,32,33,33,34,34,35,35,36,36,37,37,38,38,39,39,40,40,42,42,43,43,44,44,45,45,46,46,47,47,48,48,49,49,50,50,51,51,52,52,53,53,54,54,55,55,56,56],"right_children":[2,4,6,8,10,12,14,16,18,20,22,24,26,28,-1,30,32,34,36,38,40,42,44,46,48,50,52,54,56,-1,-1,58,60,62,64,66,68,70,72,74,76,-1,78,80,82,84,86,88,90,92,94,96,98,100,102,104,106,-1,-1,-1,-1,-1,-1,-1,-1,-1,-1,-1,-1,-1,-1,-1,-1,-1,-1,-1,-1,-1,-1,-1,-1,-1,-1,-1,-1,-1,-1,-1,-1,-1,-1,-1,-1,-1,-1,-1,-1,-1,-1,-1,-1,-1,-1,-1,-1,-1,-1],"split_conditions":[4.7E1,2.9E1,7.6E1,2E1,2.4967499E1,5.6E1,1.11E2,2E0,2.2401142E1,3.9E1,4.3282504E0,2.901743E1,2.5071098E1,8.761418E0,2.024408E1,4.1E1,6.6666665E0,9.1E0,3.6666668E1,1E-1,2.3E0,2.6178707E1,3.1666666E1,3E-1,4.2093325E0,2E-1,5.8333332E1,7.9E1,8.8333336E1,-1.0149953E1,-1.8257567E0,1E-1,3.4E1,2.2E1,7.8954163E0,3.4411978E2,2.5741888E1,3.0525513E2,3.3E1,3.2E1,5.6E1,2.0656579E0,1.4E0,1.4E1,9.155652E1,6.098917E0,7.2666664E1,5.9E1,4.7E1,7.4239173E0,3.097047E2,5.322E0,1E-1,6.1E1,8.4E1,8.7E1,8.7E1,7.9878944E-1,-3.4343424E0,-5.5347023E0,-4.0881996E0,-3.3040736E0,-1.4867907E0,1.1656579E0,-3.8835804E0,-3.5361104E0,1.0656579E0,-4.1472206E0,-1.5014782E0,8.94402E-1,-1.0063882E0,-1.8326674E0,-6.010776E-1,3.6914551E0,1.4282805E0,3.5675383E-1,-1.7057954E0,-3.7348268E0,1.3242434E0,3.2613652E0,-2.826098E0,-2.7770355E0,-7.207912E-1,-2.9462633E-1,4.1381407E0,1.5702014E0,1.0624245E1,-3.401376E0,-8.343422E-1,5.6790537E-1,-1.3044977E0,1.2415601E0,6.606146E0,4.8923616E0,2.1933033E0,-1.0222206E0,4.1897235E0,2.3960624E0,-1.1840562E0,7.3656583E0,1.6242434E0,-5.812107E-1,2.0542107E0,9.484345E0,1.3650205E1,-1.163635E0,6.187544E0],"split_indices":[1,1,1,1,6,1,1,1,6,1,4,6,6,4,0,2,0,5,0,5,5,6,0,5,4,5,0,1,0,0,0,5,3,1,6,7,6,7,1,2,2,0,5,2,7,4,0,3,0,4,7,4,5,0,1,1,1,0,0,0,0,0,0,0,0,0,0,0,0,0,0,0,0,0,0,0,0,0,0,0,0,0,0,0,0,0,0,0,0,0,0,0,0,0,0,0,0,0,0,0,0,0,0,0,0,0,0],"split_type":[0,0,0,0,0,0,0,0,0,0,0,0,0,0,0,0,0,0,0,0,0,0,0,0,0,0,0,0,0,0,0,0,0,0,0,0,0,0,0,0,0,0,0,0,0,0,0,0,0,0,0,0,0,0,0,0,0,0,0,0,0,0,0,0,0,0,0,0,0,0,0,0,0,0,0,0,0,0,0,0,0,0,0,0,0,0,0,0,0,0,0,0,0,0,0,0,0,0,0,0,0,0,0,0,0,0,0],"sum_hessian":[3.931E3,2.799E3,1.132E3,1.104E3,1.695E3,1.008E3,1.24E2,3.72E2,7.32E2,1.073E3,6.22E2,5.15E2,4.93E2,1.14E2,1E1,3.3E1,3.39E2,3.89E2,3.43E2,6.38E2,4.35E2,7.7E1,5.45E2,4.23E2,9.2E1,3.68E2,1.25E2,1.5E1,9.9E1,3.2E1,1E0,6E0,3.33E2,3.21E2,6.8E1,2.9E2,5.3E1,2.61E2,3.77E2,3.11E2,1.24E2,2E0,7.5E1,1.26E2,4.19E2,2.18E2,2.05E2,1.2E1,8E1,1.88E2,1.8E2,8.4E1,4.1E1,3E0,1.2E1,8.8E1,1.1E1,4E0,2E0,2.4E2,9.3E1,5.7E1,2.64E2,2E0,6.6E1,2.88E2,2E0,1.1E1,4.2E1,1.7E2,9.1E1,1.45E2,2.32E2,7.7E1,2.34E2,1.02E2,2.2E1,7.4E1,1E0,3E0,1.23E2,4.4E1,3.75E2,2.1E1,1.97E2,2.04E2,1E0,1E1,2E0,4.8E1,3.2E1,6E0,1.82E2,1.62E2,1.8E1,1.1E1,7.3E1,1.9E1,2.2E1,2E0,1E0,4E0,8E0,5.9E1,2.9E1,3E0,8E0],"tree_param":{"num_deleted":"0","num_feature":"8","num_nodes":"107","size_leaf_vector":"1"}},{"base_weights":[1.20046735E-2,-4.8163567E0,8.253109E0,-1.0822985E1,-2.699137E0,4.8561206E0,1.6114038E1,-1.876405E1,-9.436709E0,-4.8075542E0,-7.512682E-1,7.662945E0,5.676682E-1,1.4014682E1,3.0184378E1,-2.3589478E1,-1.58152E1,-1.0612641E1,-7.0075755E0,-3.2245324E0,-6.46793E0,2.5491126E0,-1.8442199E0,9.991753E0,4.138583E0,-9.062966E0,1.228591E0,1.6275768E1,6.3626003E0,3.6361843E1,1.0875187E1,-2.3990797E1,-1.5518934E0,1.9819959E0,-1.6441473E1,-9.74534E0,-1.2680775E1,-1.0548323E1,-5.810876E0,-2.00206E0,-7.158863E0,-6.7848434E0,1.6116636E0,5.2423245E-1,5.023272E0,-6.622811E-1,-5.055907E0,1.2560923E1,7.3964896E0,3.591071E0,8.943136E0,-6.6559563E0,-1.2248587E1,-2.716951E-1,5.8954773E0,1.4621528E1,2.2926432E1,1.0772171E1,2.7076912E0,3.8259464E1,-1.0603892E0,1.4794575E1,-3.6017723E0,-7.309449E0,-1.8032639E0,1.0544249E0,-1.6252671E-1,-5.0752473E0,-5.2740175E-1,-2.7099679E0,-3.856843E0,-4.183129E0,-2.2550359E0,-3.6243577E0,-1.192548E0,-2.9595294E0,-1.1295233E0,-2.0523827E0,-3.830271E-1,9.325264E-1,-2.2152104E0,-2.8917973E0,-1.7878902E0,1.7347395E0,-1.5518073E0,2.2949796E-2,4.4497705E0,-2.702849E0,1.6129104E0,3.921155E-1,-1.1038116E0,-3.6765797E0,-1.1433301E0,3.770352E-1,4.002683E0,-1.3564771E0,2.3663461E0,1.9081751E0,2.3069762E-1,-2.2465105E0,9.9939483E-1,-2.1553288E-1,-4.034966E0,1.5009747E0,-3.589178E-1,6.2892118E0,1.3801243E0,4.621779E0,1.855263E0,7.7166185E0,7.7638394E-1,2.0715714E0,5.027014E0,2.52832E0,-5.1750594E-1,9.383794E0,1.6145433E1,2.67128E-2,-5.0388795E-1,1.6133345E0,6.9945216E0,-1.9047837E0,6.961121E-1],"categories":[],"categories_nodes":[],"categories_segments":[],"categories_sizes":[],"default_left":[0,0,0,0,0,0,0,0,0,0,0,0,0,0,0,0,0,0,0,0,0,0,0,0,0,0,0,0,0,0,0,0,0,0,0,0,0,0,0,0,0,0,0,0,0,0,0,0,0,0,0,0,0,0,0,0,0,0,0,0,0,0,0,0,0,0,0,0,0,0,0,0,0,0,0,0,0,0,0,0,0,0,0,0,0,0,0,0,0,0,0,0,0,0,0,0,0,0,0,0,0,0,0,0,0,0,0,0,0,0,0,0,0,0,0,0,0,0,0,0,0,0,0],"id":1,"left_children":[1,3,5,7,9,11,13,15,17,19,21,23,25,27,29,31,33,35,37,39,41,43,45,47,49,51,53,55,57,59,61,63,-1,65,67,69,71,73,75,77,79,81,83,85,87,89,91,93,95,97,-1,99,101,103,105,107,109,111,113,115,117,119,121,-1,-1,-1,-1,-1,-1,-1,-1,-1,-1,-1,-1,-1,-1,-1,-1,-1,-1,-1,-1,-1,-1,-1,-1,-1,-1,-1,-1,-1,-1,-1,-1,-1,-1,-1,-1,-1,-1,-1,-1,-1,-1,-1,-1,-1,-1,-1,-1,-1,-1,-1,-1,-1,-1,-1,-1,-1,-1,-1,-1],"loss_changes":[1.5649808E5,3.1509824E4,3.8721906E4,6.934414E3,7.532586E3,1.2225172E4,1.2514906E4,9.7873047E2,1.5024141E3,2.2947734E3,3.4495356E3,4.9980938E3,2.5762725E3,6.523117E3,6.28434E3,1.2718555E2,7.236338E2,5.4008984E2,7.1411426E2,2.164421E3,1.1094023E3,1.189717E3,2.7221921E3,2.3674648E3,3.3506406E3,1.1783716E2,2.648231E3,2.9103047E3,1.405208E3,3.023129E3,9.043989E2,7.547461E1,0E0,1.3509003E1,3.8963184E2,4.709082E2,5.865254E2,4.0538623E2,1.1157397E3,1.2091995E3,2.7032568E2,9.1539453E2,5.1094623E2,8.4449896E2,5.786135E2,3.1301204E3,1.6829229E3,1.608416E3,1.1248291E3,1.8865283E3,0E0,1.66276E2,1.2884875E2,1.4058937E3,1.6989126E3,1.4864922E3,3.1743867E3,8.0996387E2,1.2823027E3,2.6606797E3,2.2848716E0,8.374458E2,7.9817245E1,0E0,0E0,0E0,0E0,0E0,0E0,0E0,0E0,0E0,0E0,0E0,0E0,0E0,0E0,0E0,0E0,0E0,0E0,0E0,0E0,0E0,0E0,0E0,0E0,0E0,0E0,0E0,0E0,0E0,0E0,0E0,0E0,0E0,0E0,0E0,0E0,0E0,0E0,0E0,0E0,0E0,0E0,0E0,0E0,0E0,0E0,0E0,0E0,0E0,0E0,0E0,0E0,0E0,0E0,0E0,0E0,0E0,0E0,0E0,0E0],"parents":[2147483647,0,0,1,1,2,2,3,3,4,4,5,5,6,6,7,7,8,8,9,9,10,10,11,11,12,12,13,13,14,14,15,15,16,16,17,17,18,18,19,19,20,20,21,21,22,22,23,23,24,24,25,25,26,26,27,27,28,28,29,29,30,30,31,31,33,33,34,34,35,35,36,36,37,37,38,38,39,39,40,40,41,41,42,42,43,43,44,44,45,45,46,46,47,47,48,48,49,49,51,51,52,52,53,53,54,54,55,55,56,56,57,57,58,58,59,59,60,60,61,61,62,62],"right_children":[2,4,6,8,10,12,14,16,18,20,22,24,26,28,30,32,34,36,38,40,42,44,46,48,50,52,54,56,58,60,62,64,-1,66,68,70,72,74,76,78,80,82,84,86,88,90,92,94,96,98,-1,100,102,104,106,108,110,112,114,116,118,120,122,-1,-1,-1,-1,-1,-1,-1,-1,-1,-1,-1,-1,-1,-1,-1,-1,-1,-1,-1,-1,-1,-1,-1,-1,-1,-1,-1,-1,-1,-1,-1,-1,-1,-1,-1,-1,-1,-1,-1,-1,-1,-1,-1,-1,-1,-1,-1,-1,-1,-1,-1,-1,-1,-1,-1,-1,-1,-1,-1,-1],"split_conditions":[4.3E1,2.4E1,6E1,1.3E1,3.3E1,2.2401142E1,8.7E1,2E0,3.6E1,2.1924562E1,1.5856354E1,4.8E1,3.8780832E0,2.5071098E1,2.72461E2,4.1E1,7E0,2.8220419E1,1.9E1,5.1E0,4.9E1,1.8532983E2,3.0785413E2,1E-1,9.4E1,4E1,5.4E1,7.6E1,5.7E1,2.9144442E1,8.4E1,3.4411978E2,-1.5518934E0,3.6666667E0,3.7457306E1,2.430725E1,2.6333334E1,3.2259717E2,2.4893303E2,2.3E1,7.8954163E0,4.840583E0,6.5E1,2.95E1,4.2093325E0,2.3999999E0,4.2093325E0,6.9197507E0,2E1,4E-1,8.943136E0,5.1E1,4.4E1,3E1,3.1E1,1.8300001E1,8.1E1,1.5319916E1,2E-1,1.8532983E2,8.4E1,7.767833E0,8.5E1,-7.309449E0,-1.8032639E0,1.0544249E0,-1.6252671E-1,-5.0752473E0,-5.2740175E-1,-2.7099679E0,-3.856843E0,-4.183129E0,-2.2550359E0,-3.6243577E0,-1.192548E0,-2.9595294E0,-1.1295233E0,-2.0523827E0,-3.830271E-1,9.325264E-1,-2.2152104E0,-2.8917973E0,-1.7878902E0,1.7347395E0,-1.5518073E0,2.2949796E-2,4.4497705E0,-2.702849E0,1.6129104E0,3.921155E-1,-1.1038116E0,-3.6765797E0,-1.1433301E0,3.770352E-1,4.002683E0,-1.3564771E0,2.3663461E0,1.9081751E0,2.3069762E-1,-2.2465105E0,9.9939483E-1,-2.1553288E-1,-4.034966E0,1.5009747E0,-3.589178E-1,6.2892118E0,1.3801243E0,4.621779E0,1.855263E0,7.7166185E0,7.7638394E-1,2.0715714E0,5.027014E0,2.52832E0,-5.1750594E-1,9.383794E0,1.6145433E1,2.67128E-2,-5.0388795E-1,1.6133345E0,6.9945216E0,-1.9047837E0,6.961121E-1],"split_indices":[1,1,1,1,1,6,1,1,3,6,6,2,4,6,7,2,1,6,1,5,0,7,7,5,3,2,1,1,2,6,2,7,0,0,6,4,0,7,7,0,6,4,2,5,4,5,4,4,3,5,0,0,1,2,2,5,2,4,5,7,0,4,0,0,0,0,0,0,0,0,0,0,0,0,0,0,0,0,0,0,0,0,0,0,0,0,0,0,0,0,0,0,0,0,0,0,0,0,0,0,0,0,0,0,0,0,0,0,0,0,0,0,0,0,0,0,0,0,0,0,0,0,0],"split_type":[0,0,0,0,0,0,0,0,0,0,0,0,0,0,0,0,0,0,0,0,0,0,0,0,0,0,0,0,0,0,0,0,0,0,0,0,0,0,0,0,0,0,0,0,0,0,0,0,0,0,0,0,0,0,0,0,0,0,0,0,0,0,0,0,0,0,0,0,0,0,0,0,0,0,0,0,0,0,0,0,0,0,0,0,0,0,0,0,0,0,0,0,0,0,0,0,0,0,0,0,0,0,0,0,0,0,0,0,0,0,0,0,0,0,0,0,0,0,0,0,0,0,0],"sum_hessian":[3.931E3,2.479E3,1.452E3,6.45E2,1.834E3,1.015E3,4.37E2,9.4E1,5.51E2,8.8E2,9.54E2,6.13E2,4.02E2,3.82E2,5.5E1,3.3E1,6.1E1,3.69E2,1.82E2,4.52E2,4.28E2,2.37E2,7.17E2,3.68E2,2.45E2,2.5E1,3.77E2,2.94E2,8.8E1,4.1E1,1.4E1,3.2E1,1E0,2E0,5.9E1,2.64E2,1.05E2,4.4E1,1.38E2,3.46E2,1.06E2,4.12E2,1.6E1,1.31E2,1.06E2,5.25E2,1.92E2,1.83E2,1.85E2,2.41E2,4E0,1.6E1,9E0,2.86E2,9.1E1,2.38E2,5.6E1,3.9E1,4.9E1,3.9E1,2E0,1.1E1,3E0,3.1E1,1E0,1E0,1E0,5.7E1,2E0,2.18E2,4.6E1,8.3E1,2.2E1,3.5E1,9E0,4.5E1,9.3E1,4.4E1,3.02E2,2E0,1.04E2,9E1,3.22E2,1E1,6E0,1.28E2,3E0,2E0,1.04E2,3.18E2,2.07E2,2.7E1,1.65E2,1.2E1,1.71E2,7E0,1.78E2,1.21E2,1.2E2,1.5E1,1E0,1E0,8E0,4.2E1,2.44E2,6E0,8.5E1,2.17E2,2.1E1,4.9E1,7E0,2.5E1,1.4E1,2.1E1,2.8E1,2.9E1,1E1,1E0,1E0,6E0,5E0,2E0,1E0],"tree_param":{"num_deleted":"0","num_feature":"8","num_nodes":"123","size_leaf_vector":"1"}},{"base_weights":[1.569369E-2,-2.7567134E0,7.5689125E0,-7.280942E0,-1.2037199E0,5.958863E0,1.6614548E1,-1.2608021E1,-6.2313795E0,-2.8814726E0,5.6188184E-1,7.9076953E0,2.812161E0,1.4872441E1,3.8701748E1,-1.68263E1,-1.0814578E1,-5.762793E0,-9.484984E0,-2.199935E0,-6.46742E0,2.143572E0,-1.1998823E0,-3.3586226E0,8.292308E0,4.4245205E0,-2.538893E-2,1.5808249E1,-3.5972095E0,2.5800626E0,1.2255566E1,-1.0068467E0,-1.7132784E1,1.5131049E0,-1.1272865E1,-6.6701574E0,-3.9951344E0,-9.817752E0,2.32089E0,-1.8512998E0,-6.7841635E0,-6.816159E0,6.7529197E0,3.7767262E0,9.261122E-1,2.1121377E-1,-5.0421977E0,-6.808681E0,1.2312961E0,1.017608E1,5.9962525E0,5.9846816E0,6.569698E-2,-2.7046638E0,6.0208054E0,1.6875364E1,4.8463902E0,1.6975399E0,-5.7278013E0,-5.218011E0,-1.319109E0,1.7714543E0,-1.7493185E0,-3.4792373E0,4.0707496E-1,-2.3573706E0,-1.5016855E0,-8.074139E-1,-1.6638675E0,-1.8179803E0,-3.4401946E0,-2.0958378E0,-4.4357234E-1,-2.8094523E0,-1.2913762E0,-2.1405768E0,-8.388049E-2,2.5205727E0,2.3544503E-2,8.026867E-1,3.2809174E0,2.3875465E0,5.7107195E-2,5.030215E0,-3.420258E-2,1.7262675E-1,-2.1163087E0,-4.1573468E-1,-2.6007137E0,-1.3740808E-1,2.211882E0,2.010868E0,3.4831119E0,4.5978782E-1,2.2928085E0,7.68098E-1,2.301946E0,-1.5191255E0,5.3221595E-1,-1.0818057E0,1.6823694E0,4.033231E0,5.376228E-1,1.7346958E0,5.4852757E0,-8.7155956E-1,2.8426886E0,-2.4977808E0,-9.070082E-1],"categories":[],"categories_nodes":[],"categories_segments":[],"categories_sizes":[],"default_left":[0,0,0,0,0,0,0,0,0,0,0,0,0,0,0,0,0,0,0,0,0,0,0,0,0,0,0,0,0,0,0,0,0,0,0,0,0,0,0,0,0,0,0,0,0,0,0,0,0,0,0,0,0,0,0,0,0,0,0,0,0,0,0,0,0,0,0,0,0,0,0,0,0,0,0,0,0,0,0,0,0,0,0,0,0,0,0,0,0,0,0,0,0,0,0,0,0,0,0,0,0,0,0,0,0,0,0,0,0],"id":2,"left_children":[1,3,5,7,9,11,13,15,17,19,21,23,25,27,29,31,33,35,37,39,41,43,45,47,49,51,53,55,57,-1,-1,-1,59,61,63,65,67,69,-1,71,73,75,77,79,81,83,85,87,89,91,93,95,97,99,101,103,105,-1,107,-1,-1,-1,-1,-1,-1,-1,-1,-1,-1,-1,-1,-1,-1,-1,-1,-1,-1,-1,-1,-1,-1,-1,-1,-1,-1,-1,-1,-1,-1,-1,-1,-1,-1,-1,-1,-1,-1,-1,-1,-1,-1,-1,-1,-1,-1,-1,-1,-1,-1],"loss_changes":[8.235929E4,2.0205318E4,1.5280496E4,4.0308906E3,6.349705E3,5.4846543E3,5.542457E3,7.258574E2,8.844922E2,2.6716836E3,2.9145327E3,2.4284258E3,1.5785393E3,2.6321875E3,3.6060938E2,8.2865234E1,5.085752E2,8.410664E2,5.1148584E2,1.4657964E3,8.5285596E2,1.0920557E3,2.6848936E3,3.092578E2,2.2573125E3,1.4957095E3,2.0574106E3,1.5792656E3,1.9017111E2,0E0,0E0,0E0,3.304004E1,1.6344629E2,3.6009473E2,6.644951E2,3.6120996E2,3.9541504E2,0E0,1.6375215E3,3.756223E2,3.5467627E2,5.4371002E1,1.8233694E3,1.6386764E3,1.9564619E3,1.507435E3,9.8960846E1,9.675398E1,1.3817773E3,1.7814678E3,9.170259E2,5.2599585E2,6.7956824E2,1.2001605E3,1.9104023E3,5.299038E2,0E0,2.4013199E1,0E0,0E0,0E0,0E0,0E0,0E0,0E0,0E0,0E0,0E0,0E0,0E0,0E0,0E0,0E0,0E0,0E0,0E0,0E0,0E0,0E0,0E0,0E0,0E0,0E0,0E0,0E0,0E0,0E0,0E0,0E0,0E0,0E0,0E0,0E0,0E0,0E0,0E0,0E0,0E0,0E0,0E0,0E0,0E0,0E0,0E0,0E0,0E0,0E0,0E0],"parents":[2147483647,0,0,1,1,2,2,3,3,4,4,5,5,6,6,7,7,8,8,9,9,10,10,11,11,12,12,13,13,14,14,15,15,16,16,17,17,18,18,19,19,20,20,21,21,22,22,23,23,24,24,25,25,26,26,27,27,28,28,32,32,33,33,34,34,35,35,36,36,37,37,39,39,40,40,41,41,42,42,43,43,44,44,45,45,46,46,47,47,48,48,49,49,50,50,51,51,52,52,53,53,54,54,55,55,56,56,58,58],"right_children":[2,4,6,8,10,12,14,16,18,20,22,24,26,28,30,32,34,36,38,40,42,44,46,48,50,52,54,56,58,-1,-1,-1,60,62,64,66,68,70,-1,72,74,76,78,80,82,84,86,88,90,92,94,96,98,100,102,104,106,-1,108,-1,-1,-1,-1,-1,-1,-1,-1,-1,-1,-1,-1,-1,-1,-1,-1,-1,-1,-1,-1,-1,-1,-1,-1,-1,-1,-1,-1,-1,-1,-1,-1,-1,-1,-1,-1,-1,-1,-1,-1,-1,-1,-1,-1,-1,-1,-1,-1,-1,-1],"split_conditions":[4.8E1,2.5E1,7.2E1,1.4E1,3.6E1,2.2127556E1,1.11E2,2E0,1.2E1,3.1981293E1,2.1322214E1,6.9197507E0,3.005515E1,3.4955242E1,6.4E1,5.136416E0,5.6666665E0,3.6E1,3.4671234E2,2.0900003E1,7.3E1,1E-1,3.0958948E2,1.8416384E1,4E-1,2.1623915E1,1.5319916E1,8.8E1,5.7333332E1,2.5800626E0,1.2255566E1,-1.0068467E0,4.1E1,1.5682251E1,5.9E1,2.1E1,2.2771244E1,2E1,2.32089E0,4.3282504E0,2.1084333E1,2.6144753E1,5.9666668E1,5.6E1,1.1026E1,1.8E1,3.1E1,4.9E1,5.2E1,1.2738397E2,5.2E1,5.2E1,1.0554739E2,6.8E1,1.8390583E1,8.761418E0,8.7E1,1.6975399E0,3.888E1,-5.218011E0,-1.319109E0,1.7714543E0,-1.7493185E0,-3.4792373E0,4.0707496E-1,-2.3573706E0,-1.5016855E0,-8.074139E-1,-1.6638675E0,-1.8179803E0,-3.4401946E0,-2.0958378E0,-4.4357234E-1,-2.8094523E0,-1.2913762E0,-2.1405768E0,-8.388049E-2,2.5205727E0,2.3544503E-2,8.026867E-1,3.2809174E0,2.3875465E0,5.7107195E-2,5.030215E0,-3.420258E-2,1.7262675E-1,-2.1163087E0,-4.1573468E-1,-2.6007137E0,-1.3740808E-1,2.211882E0,2.010868E0,3.4831119E0,4.5978782E-1,2.2928085E0,7.68098E-1,2.301946E0,-1.5191255E0,5.3221595E-1,-1.0818057E0,1.6823694E0,4.033231E0,5.376228E-1,1.7346958E0,5.4852757E0,-8.7155956E-1,2.8426886E0,-2.4977808E0,-9.070082E-1],"split_indices":[1,1,1,1,1,6,1,1,5,6,6,4,6,6,2,4,0,3,7,5,3,5,7,6,5,4,4,0,0,0,0,0,2,4,3,1,6,2,0,4,4,4,0,3,4,2,2,1,3,7,1,1,7,1,4,4,1,0,6,0,0,0,0,0,0,0,0,0,0,0,0,0,0,0,0,0,0,0,0,0,0,0,0,0,0,0,0,0,0,0,0,0,0,0,0,0,0,0,0,0,0,0,0,0,0,0,0,0,0],"split_type":[0,0,0,0,0,0,0,0,0,0,0,0,0,0,0,0,0,0,0,0,0,0,0,0,0,0,0,0,0,0,0,0,0,0,0,0,0,0,0,0,0,0,0,0,0,0,0,0,0,0,0,0,0,0,0,0,0,0,0,0,0,0,0,0,0,0,0,0,0,0,0,0,0,0,0,0,0,0,0,0,0,0,0,0,0,0,0,0,0,0,0,0,0,0,0,0,0,0,0,0,0,0,0,0,0,0,0,0,0],"sum_hessian":[3.931E3,2.876E3,1.055E3,7.34E2,2.142E3,8.97E2,1.58E2,1.19E2,6.15E2,1.098E3,1.044E3,5.53E2,3.44E2,1.48E2,1E1,3.3E1,8.6E1,5.4E2,7.5E1,9.24E2,1.74E2,5.5E2,4.94E2,1.8E1,5.35E2,2.19E2,1.25E2,1.41E2,7E0,1E0,9E0,1E0,3.2E1,3E0,8.3E1,3.55E2,1.85E2,7.4E1,1E0,8.6E2,6.4E1,1.7E2,4E0,2.34E2,3.16E2,3.62E2,1.32E2,1E1,8E0,2.92E2,2.43E2,1.61E2,5.8E1,8.7E1,3.8E1,1.28E2,1.3E1,1E0,6E0,3.1E1,1E0,2E0,1E0,8.1E1,2E0,2.05E2,1.5E2,1.02E2,8.3E1,2.4E1,5E1,5.7E1,8.03E2,3E1,3.4E1,1.62E2,8E0,3E0,1E0,2.04E2,3E1,2.9E1,2.87E2,6E0,3.56E2,3.5E1,9.7E1,3E0,7E0,7E0,1E0,8.7E1,2.05E2,6.6E1,1.77E2,5.4E1,1.07E2,1.4E1,4.4E1,7.9E1,8E0,1.3E1,2.5E1,1.5E1,1.13E2,5E0,8E0,2E0,4E0],"tree_param":{"num_deleted":"0","num_feature":"8","num_nodes":"109","size_leaf_vector":"1"}},{"base_weights":[1.6142845E-2,-1.9354693E0,5.333162E0,-3.8666232E0,-2.1674164E-2,4.0951395E0,1.1335453E1,-7.002893E0,-3.000988E0,6.93315E-1,-2.1567338E0,6.603608E0,2.5098593E0,9.75439E0,2.5023111E1,-1.2000292E1,-6.3618984E0,-2.6042535E0,-5.3408294E0,2.1071138E0,-4.253368E-1,1.3145979E1,-2.4071794E0,6.268693E0,2.159263E1,-3.152883E0,3.0320785E0,1.30917015E1,6.614103E0,8.565005E0,2.911364E1,-1.2212407E1,-7.500727E-1,-6.49149E0,4.073213E0,-1.936201E0,-4.005228E0,-5.75121E0,4.567783E0,-1.4386421E-1,3.8207035E0,3.396969E-1,-1.9124882E0,-1.5716515E0,8.516249E0,-1.5239799E0,-4.944213E0,6.9071183E0,-1.5352962E0,1.5402209E0,7.044014E0,9.713084E0,-4.609477E0,3.3232543E0,-7.1884665E0,2.1068699E1,8.931444E0,6.883005E0,5.322873E0,4.235912E0,1.5530269E-1,9.639073E-1,3.085884E1,-3.7743952E0,-1.2988603E0,-1.7245272E0,-2.761941E0,-5.071247E-1,3.204615E0,-1.1542026E0,-2.4712956E-2,-1.4144174E0,-3.0953905E-1,-1.8818809E0,3.0967265E-1,1.7248467E0,-3.7836802E-1,-2.231029E0,1.3844216E-1,4.434569E-1,1.5148371E0,1.5932069E0,-4.059046E-2,-2.2085208E-1,-1.4089733E0,-6.8694615E-1,8.742829E-2,-7.717084E-1,2.7455163E-1,-1.6915332E0,9.150057E-1,1.3420068E0,2.4883537E0,-2.2734613E0,6.3290006E-1,6.069506E0,-1.2129635E0,-4.5888028E-1,-2.2849545E0,1.6562843E0,4.885795E-1,-3.3840399E0,1.7582194E0,4.445368E0,8.137945E0,-2.244197E-2,3.3082986E0,2.3634295E0,1.4082934E-1,3.621397E-1,-2.922535E-1,9.663614E0,2.1930532E0],"categories":[],"categories_nodes":[],"categories_segments":[],"categories_sizes":[],"default_left":[0,0,0,0,0,0,0,0,0,0,0,0,0,0,0,0,0,0,0,0,0,0,0,0,0,0,0,0,0,0,0,0,0,0,0,0,0,0,0,0,0,0,0,0,0,0,0,0,0,0,0,0,0,0,0,0,0,0,0,0,0,0,0,0,0,0,0,0,0,0,0,0,0,0,0,0,0,0,0,0,0,0,0,0,0,0,0,0,0,0,0,0,0,0,0,0,0,0,0,0,0,0,0,0,0,0,0,0,0,0,0,0,0],"id":3,"left_children":[1,3,5,7,9,11,13,15,17,19,21,23,25,27,29,31,33,35,37,39,41,43,45,47,49,51,53,55,57,59,61,63,-1,65,67,69,71,73,75,77,79,81,83,85,-1,87,89,91,93,-1,-1,95,97,99,101,103,105,-1,107,-1,109,-1,111,-1,-1,-1,-1,-1,-1,-1,-1,-1,-1,-1,-1,-1,-1,-1,-1,-1,-1,-1,-1,-1,-1,-1,-1,-1,-1,-1,-1,-1,-1,-1,-1,-1,-1,-1,-1,-1,-1,-1,-1,-1,-1,-1,-1,-1,-1,-1,-1,-1,-1],"loss_changes":[4.0811742E4,1.0632828E4,7.8006836E3,3.86667E3,2.2088787E3,3.4709268E3,3.6513027E3,9.1347754E2,1.0294961E3,1.7152952E3,1.4228414E3,1.5664395E3,1.6034866E3,1.621668E3,9.6244434E2,3.7979492E1,3.9967578E2,8.935405E2,6.850117E2,1.8481736E3,6.901085E2,1.3905292E3,7.946384E2,1.6696992E3,9.6900635E1,9.0683496E2,1.4940205E3,2.4003613E3,1.6911685E3,2.3137405E2,5.336758E2,4.149463E1,0E0,4.9783105E2,1.7042062E2,2.316753E3,6.4912354E2,5.585747E2,5.5468628E1,9.2168304E2,7.754531E2,9.4756525E2,6.7118524E2,6.0193386E0,0E0,6.8511633E2,5.277827E2,1.0028838E3,5.88668E2,0E0,0E0,8.0528595E2,3.7732452E2,1.7824136E3,8.1361127E2,5.8256055E2,1.00141504E3,0E0,1.0008347E3,0E0,4.740027E0,0E0,1.7878418E2,0E0,0E0,0E0,0E0,0E0,0E0,0E0,0E0,0E0,0E0,0E0,0E0,0E0,0E0,0E0,0E0,0E0,0E0,0E0,0E0,0E0,0E0,0E0,0E0,0E0,0E0,0E0,0E0,0E0,0E0,0E0,0E0,0E0,0E0,0E0,0E0,0E0,0E0,0E0,0E0,0E0,0E0,0E0,0E0,0E0,0E0,0E0,0E0,0E0,0E0],"parents":[2147483647,0,0,1,1,2,2,3,3,4,4,5,5,6,6,7,7,8,8,9,9,10,10,11,11,12,12,13,13,14,14,15,15,16,16,17,17,18,18,19,19,20,20,21,21,22,22,23,23,24,24,25,25,26,26,27,27,28,28,29,29,30,30,31,31,33,33,34,34,35,35,36,36,37,37,38,38,39,39,40,40,41,41,42,42,43,43,45,45,46,46,47,47,48,48,51,51,52,52,53,53,54,54,55,55,56,56,58,58,60,60,62,62],"right_children":[2,4,6,8,10,12,14,16,18,20,22,24,26,28,30,32,34,36,38,40,42,44,46,48,50,52,54,56,58,60,62,64,-1,66,68,70,72,74,76,78,80,82,84,86,-1,88,90,92,94,-1,-1,96,98,100,102,104,106,-1,108,-1,110,-1,112,-1,-1,-1,-1,-1,-1,-1,-1,-1,-1,-1,-1,-1,-1,-1,-1,-1,-1,-1,-1,-1,-1,-1,-1,-1,-1,-1,-1,-1,-1,-1,-1,-1,-1,-1,-1,-1,-1,-1,-1,-1,-1,-1,-1,-1,-1,-1,-1,-1,-1],"split_conditions":[4.8E1,3.2E1,7.1E1,1.9E1,2.8757215E1,1.7727943E1,1.06E2,2E0,3.1981293E1,1E-1,1.8E1,9.4E1,5.4928336E0,2E-1,8.710028E1,3.4411978E2,5.6199993E1,3.089E2,6.2E1,1.4211415E1,2.0523157E1,2.4E1,3.0995087E2,7.1E1,6.9E1,2.6E1,4.0541176E1,1.6215992E1,2.6E1,1.4E0,5.3E1,2.2600004E1,-7.500727E-1,2.319475E1,2E1,2.0118137E2,3.9E1,2.4971994E1,2.9366312E2,3.984333E0,1.8532983E2,1.1026E1,2.973291E2,4.6845E0,8.516249E0,3.0507898E2,3.3036713E2,1.2369012E2,5.7E1,1.5402209E0,7.044014E0,5E1,4.8E1,4.8E1,5.1E1,1.7987123E2,8.761418E0,6.883005E0,7.1666664E1,4.235912E0,9.1E1,9.639073E-1,1.5400001E1,-3.7743952E0,-1.2988603E0,-1.7245272E0,-2.761941E0,-5.071247E-1,3.204615E0,-1.1542026E0,-2.4712956E-2,-1.4144174E0,-3.0953905E-1,-1.8818809E0,3.0967265E-1,1.7248467E0,-3.7836802E-1,-2.231029E0,1.3844216E-1,4.434569E-1,1.5148371E0,1.5932069E0,-4.059046E-2,-2.2085208E-1,-1.4089733E0,-6.8694615E-1,8.742829E-2,-7.717084E-1,2.7455163E-1,-1.6915332E0,9.150057E-1,1.3420068E0,2.4883537E0,-2.2734613E0,6.3290006E-1,6.069506E0,-1.2129635E0,-4.5888028E-1,-2.2849545E0,1.6562843E0,4.885795E-1,-3.3840399E0,1.7582194E0,4.445368E0,8.137945E0,-2.244197E-2,3.3082986E0,2.3634295E0,1.4082934E-1,3.621397E-1,-2.922535E-1,9.663614E0,2.1930532E0],"split_indices":[1,1,1,1,6,6,1,1,6,5,2,3,4,5,7,7,5,7,3,4,6,0,7,2,0,2,6,6,3,5,2,5,0,4,0,7,2,4,7,4,7,4,7,4,0,7,7,7,1,0,0,1,2,2,0,7,4,0,0,0,0,0,5,0,0,0,0,0,0,0,0,0,0,0,0,0,0,0,0,0,0,0,0,0,0,0,0,0,0,0,0,0,0,0,0,0,0,0,0,0,0,0,0,0,0,0,0,0,0,0,0,0,0],"split_type":[0,0,0,0,0,0,0,0,0,0,0,0,0,0,0,0,0,0,0,0,0,0,0,0,0,0,0,0,0,0,0,0,0,0,0,0,0,0,0,0,0,0,0,0,0,0,0,0,0,0,0,0,0,0,0,0,0,0,0,0,0,0,0,0,0,0,0,0,0,0,0,0,0,0,0,0,0,0,0,0,0,0,0,0,0,0,0,0,0,0,0,0,0,0,0,0,0,0,0,0,0,0,0,0,0,0,0,0,0,0,0,0,0],"sum_hessian":[3.931E3,2.876E3,1.055E3,1.431E3,1.445E3,8.76E2,1.79E2,3.08E2,1.123E3,1.083E3,3.62E2,3.38E2,5.38E2,1.62E2,1.7E1,3.3E1,2.75E2,9.62E2,1.61E2,4.78E2,6.05E2,5E0,3.57E2,3.32E2,6E0,4.5E1,4.93E2,7.7E1,8.5E1,4E0,1.3E1,3.2E1,1E0,2.72E2,3E0,6.53E2,3.09E2,1.55E2,6E0,2.07E2,2.71E2,4E2,2.05E2,3E0,2E0,2.66E2,9.1E1,3.07E2,2.5E1,1E0,5E0,4E0,4.1E1,4.8E2,1.3E1,2.5E1,5.2E1,5E0,8E1,2E0,2E0,1E0,1.2E1,3E1,2E0,2.16E2,5.6E1,2E0,1E0,3.21E2,3.32E2,2.49E2,6E1,1.44E2,1.1E1,5E0,1E0,1.5E1,1.92E2,9.4E1,1.77E2,3.4E1,3.66E2,1.45E2,6E1,2E0,1E0,1.86E2,8E1,8.4E1,7E0,1.13E2,1.94E2,9E0,1.6E1,2E0,2E0,2.1E1,2E1,2.08E2,2.72E2,1E1,3E0,1.4E1,1.1E1,1E1,4.2E1,5.2E1,2.8E1,1E0,1E0,1.1E1,1E0],"tree_param":{"num_deleted":"0","num_feature":"8","num_nodes":"113","size_leaf_vector":"1"}},{"base_weights":[2.4392547E-2,-1.1125647E0,4.740352E0,-3.1368299E0,-2.882348E-2,4.0103474E0,1.1492959E1,-6.5162973E0,-2.7223542E0,1.9111068E0,-6.3357073E-1,4.627732E0,-2.7272746E-1,1.5150363E1,8.6044997E-1,-6.75747E0,2.1670785E0,-3.8138494E0,-2.0858045E0,1.4541744E0,6.890751E0,-1.4115819E0,6.962861E-1,5.15665E0,-2.5373802E-1,-4.939174E0,1.7638335E0,1.8706697E1,7.427484E0,-3.0738432E0,3.4231513E0,-6.9423223E0,2.5810223E0,-6.375618E-1,1.2918726E0,-2.9506068E0,-6.2790284E0,-1.9841716E0,-8.8215475E0,-4.012147E0,1.8254962E0,6.1432004E0,5.6689434E0,-3.4898534E0,-8.403121E-1,4.124259E0,9.360477E-2,1.085789E1,4.6957684E0,-1.2131349E1,8.1129396E-1,-1.6917683E0,-8.8574505E0,-1.3679003E0,6.4535155E0,1.45245495E1,2.7271358E1,1.5524196E1,3.42693E0,1.0591791E1,-4.4643116E-1,-1.5180821E0,-2.4645388E0,2.1508199E-1,9.4637805E-1,-1.6148344E0,-5.857102E-1,-1.9446951E0,5.9412E-1,-7.213448E-1,-2.0265352E-2,-1.7632117E0,-3.8252323E0,2.2475066E0,-2.0162802E0,7.00462E-1,-4.4586062E-1,1.246752E0,5.3608923E0,-9.372623E-1,-3.190983E0,-1.0690211E0,1.9717135E-2,7.1993995E-1,3.4879682E0,-6.497818E-2,1.3357049E0,2.5494044E0,1.1139105E1,8.935022E-1,1.7772166E0,-5.208853E0,-8.568215E-1,1.8006164E0,-3.702469E-1,-1.4363164E0,1.8230618E0,-3.5557525E0,-1.1660926E0,-1.4983355E0,3.6431763E-1,4.812583E0,1.722107E-2,4.7303634E0,1.0300332E0,8.7240305E0,1.3775929E0,6.159099E0,2.3665643E0,-4.288654E-1,2.1743956E0,5.509103E-1,5.6205277E0,-2.286227E0,5.251529E-1],"categories":[],"categories_nodes":[],"categories_segments":[],"categories_sizes":[],"default_left":[0,0,0,0,0,0,0,0,0,0,0,0,0,0,0,0,0,0,0,0,0,0,0,0,0,0,0,0,0,0,0,0,0,0,0,0,0,0,0,0,0,0,0,0,0,0,0,0,0,0,0,0,0,0,0,0,0,0,0,0,0,0,0,0,0,0,0,0,0,0,0,0,0,0,0,0,0,0,0,0,0,0,0,0,0,0,0,0,0,0,0,0,0,0,0,0,0,0,0,0,0,0,0,0,0,0,0,0,0,0,0,0,0,0,0],"id":4,"left_children":[1,3,5,7,9,11,13,15,17,19,21,23,25,27,29,31,33,35,37,39,41,43,45,47,49,51,53,55,57,-1,59,61,63,-1,-1,65,67,69,71,73,75,-1,77,79,81,83,85,87,89,91,93,95,97,99,101,103,105,107,109,111,113,-1,-1,-1,-1,-1,-1,-1,-1,-1,-1,-1,-1,-1,-1,-1,-1,-1,-1,-1,-1,-1,-1,-1,-1,-1,-1,-1,-1,-1,-1,-1,-1,-1,-1,-1,-1,-1,-1,-1,-1,-1,-1,-1,-1,-1,-1,-1,-1,-1,-1,-1,-1,-1,-1],"loss_changes":[2.1088047E4,6.951997E3,3.719998E3,1.530042E3,2.423802E3,1.8284766E3,2.86463E3,2.6594775E2,6.771089E2,1.1071819E3,1.6305463E3,1.5607754E3,8.4502014E2,1.3716377E3,6.043317E2,2.1988867E2,4.5879246E1,7.518262E2,4.103545E2,9.2274805E2,5.645227E2,1.1771975E3,1.2020115E3,1.3810547E3,7.688442E2,3.2856952E2,9.1941156E2,9.291875E2,5.62235E2,0E0,4.7630246E2,2.3390967E2,9.4589806E-1,0E0,0E0,6.450217E2,1.6898901E2,4.9687817E2,2.9174011E1,9.5403253E2,7.170299E2,0E0,6.457124E2,5.2599023E2,1.9271321E3,1.0976536E3,6.7159454E2,2.164455E3,1.0497598E3,1.930282E2,6.019842E2,4.139159E2,1.325719E2,3.6192825E2,1.5322957E3,3.1818896E2,3.1769727E2,6.7395996E1,2.701577E2,3.9338385E2,2.0247902E2,0E0,0E0,0E0,0E0,0E0,0E0,0E0,0E0,0E0,0E0,0E0,0E0,0E0,0E0,0E0,0E0,0E0,0E0,0E0,0E0,0E0,0E0,0E0,0E0,0E0,0E0,0E0,0E0,0E0,0E0,0E0,0E0,0E0,0E0,0E0,0E0,0E0,0E0,0E0,0E0,0E0,0E0,0E0,0E0,0E0,0E0,0E0,0E0,0E0,0E0,0E0,0E0,0E0,0E0],"parents":[2147483647,0,0,1,1,2,2,3,3,4,4,5,5,6,6,7,7,8,8,9,9,10,10,11,11,12,12,13,13,14,14,15,15,16,16,17,17,18,18,19,19,20,20,21,21,22,22,23,23,24,24,25,25,26,26,27,27,28,28,30,30,31,31,32,32,35,35,36,36,37,37,38,38,39,39,40,40,42,42,43,43,44,44,45,45,46,46,47,47,48,48,49,49,50,50,51,51,52,52,53,53,54,54,55,55,56,56,57,57,58,58,59,59,60,60],"right_children":[2,4,6,8,10,12,14,16,18,20,22,24,26,28,30,32,34,36,38,40,42,44,46,48,50,52,54,56,58,-1,60,62,64,-1,-1,66,68,70,72,74,76,-1,78,80,82,84,86,88,90,92,94,96,98,100,102,104,106,108,110,112,114,-1,-1,-1,-1,-1,-1,-1,-1,-1,-1,-1,-1,-1,-1,-1,-1,-1,-1,-1,-1,-1,-1,-1,-1,-1,-1,-1,-1,-1,-1,-1,-1,-1,-1,-1,-1,-1,-1,-1,-1,-1,-1,-1,-1,-1,-1,-1,-1,-1,-1,-1,-1,-1,-1],"split_conditions":[5.3E1,2.9E1,8.3E1,1.4E1,1.5807239E1,3.005515E1,2.72461E2,3.4411978E2,2.7E1,5E1,4.3E1,1.9300001E1,5.7E1,1.9191748E1,8.6E1,5.9E1,1.6666666E0,2.81169E1,6.3E1,2.6666666E1,2.6E1,1.19081154E2,3.2E1,4.1666668E1,2.5656666E1,5.0666668E1,1.5319916E1,1.8532983E2,4.2E1,-3.0738432E0,7.1E1,1E-1,3E1,-6.375618E-1,1.2918726E0,7.0197506E0,3.8E1,3.7333332E1,1.1500002E1,1.0126E1,9.500001E0,6.1432004E0,7.1E1,5.1E1,6.6824164E0,4.4E1,7.7E1,2.8467327E1,6E1,5.6E1,1.630933E1,3.8E1,3.5208298E1,6.1E1,5.8333332E1,1.725373E1,5.899999E0,1.1676E1,6.2E1,6.098917E0,4.6E1,-1.5180821E0,-2.4645388E0,2.1508199E-1,9.4637805E-1,-1.6148344E0,-5.857102E-1,-1.9446951E0,5.9412E-1,-7.213448E-1,-2.0265352E-2,-1.7632117E0,-3.8252323E0,2.2475066E0,-2.0162802E0,7.00462E-1,-4.4586062E-1,1.246752E0,5.3608923E0,-9.372623E-1,-3.190983E0,-1.0690211E0,1.9717135E-2,7.1993995E-1,3.4879682E0,-6.497818E-2,1.3357049E0,2.5494044E0,1.1139105E1,8.935022E-1,1.7772166E0,-5.208853E0,-8.568215E-1,1.8006164E0,-3.702469E-1,-1.4363164E0,1.8230618E0,-3.5557525E0,-1.1660926E0,-1.4983355E0,3.6431763E-1,4.812583E0,1.722107E-2,4.7303634E0,1.0300332E0,8.7240305E0,1.3775929E0,6.159099E0,2.3665643E0,-4.288654E-1,2.1743956E0,5.509103E-1,5.6205277E0,-2.286227E0,5.251529E-1],"split_indices":[1,1,1,1,6,6,7,7,3,1,3,5,1,6,1,3,0,6,2,0,2,7,2,0,7,0,4,7,3,0,0,5,0,0,0,4,2,0,5,4,5,0,3,1,4,1,3,6,1,1,4,3,6,1,0,6,5,4,3,4,3,0,0,0,0,0,0,0,0,0,0,0,0,0,0,0,0,0,0,0,0,0,0,0,0,0,0,0,0,0,0,0,0,0,0,0,0,0,0,0,0,0,0,0,0,0,0,0,0,0,0,0,0,0,0],"split_type":[0,0,0,0,0,0,0,0,0,0,0,0,0,0,0,0,0,0,0,0,0,0,0,0,0,0,0,0,0,0,0,0,0,0,0,0,0,0,0,0,0,0,0,0,0,0,0,0,0,0,0,0,0,0,0,0,0,0,0,0,0,0,0,0,0,0,0,0,0,0,0,0,0,0,0,0,0,0,0,0,0,0,0,0,0,0,0,0,0,0,0,0,0,0,0,0,0,0,0,0,0,0,0,0,0,0,0,0,0,0,0,0,0,0,0],"sum_hessian":[3.931E3,3.168E3,7.63E2,1.104E3,2.064E3,6.9E2,7.3E1,1.19E2,9.85E2,4.9E2,1.574E3,6.03E2,8.7E1,5.4E1,1.9E1,1.16E2,3E0,3.61E2,6.24E2,4.5E2,4E1,9.93E2,5.81E2,5.44E2,5.9E1,2.6E1,6.1E1,3.6E1,1.8E1,3E0,1.6E1,1.14E2,2E0,1E0,2E0,2.69E2,9.2E1,6.16E2,8E0,2.8E1,4.22E2,2E0,3.8E1,2.13E2,7.8E2,8.6E1,4.95E2,3.9E1,5.05E2,4E0,5.5E1,1.5E1,1.1E1,3.7E1,2.4E1,2.6E1,1E1,5E0,1.3E1,5E0,1.1E1,4.8E1,6.6E1,1E0,1E0,7.7E1,1.92E2,9E1,2E0,5.05E2,1.11E2,6E0,2E0,5E0,2.3E1,3.66E2,5.6E1,3.5E1,3E0,2.04E2,9E0,1.94E2,5.86E2,7.1E1,1.5E1,4.63E2,3.2E1,3.7E1,2E0,2.12E2,2.93E2,2E0,2E0,1.5E1,4E1,1.1E1,4E0,6E0,5E0,1.5E1,2.2E1,9E0,1.5E1,2.3E1,3E0,9E0,1E0,2E0,3E0,6E0,7E0,3E0,2E0,2E0,9E0],"tree_param":{"num_deleted":"0","num_feature":"8","num_nodes":"115","size_leaf_vector":"1"}},{"base_weights":[2.7258726E-2,-1.557651E0,1.8824278E0,-3.192789E0,-1.0446947E0,1.2409647E0,5.190251E0,-5.613402E0,-2.8169394E0,-7.020022E-2,-1.8781369E0,3.3490734E0,4.895138E-1,4.5589676E0,1.4616653E1,-8.847236E0,-4.7469797E0,4.4045234E0,-2.9438555E0,-1.5669522E0,1.0333825E0,-4.7871232E-1,-2.3648114E0,2.942389E0,1.6219448E1,1.1193944E0,-2.3473485E0,5.8300557E0,2.1401436E0,1.9386997E1,7.6921997E0,-7.509677E-1,-3.0753045E0,1.3515337E0,-5.8137803E0,5.5137115E0,-5.0396895E-1,-4.015642E0,-2.1050334E0,9.448066E-1,-2.376745E0,-1.1478701E0,1.7416269E0,-7.0689124E-1,2.9244525E0,3.412663E0,-2.5453293E0,2.29875E0,1.0546526E1,1.7876644E1,-3.0145627E-1,2.4054928E-1,2.911209E0,5.675693E0,-3.1542864E0,-1.2948747E-1,6.613055E0,5.9052877E0,-8.4242636E-1,2.2471025E1,4.700587E0,1.4136105E0,1.0595893E1,-6.1948016E-2,-2.7598745E-1,-6.732798E-1,2.7873666E0,-1.8532331E0,4.7372803E-1,2.1542989E-1,1.8579892E0,4.045476E-1,-1.3160791E0,-3.7868986E-1,-9.1401374E-1,-6.871514E-1,8.1075907E-1,-7.538169E-1,2.7609298E0,3.1516948E-1,-1.0617992E0,8.2390994E-1,-1.325962E-2,1.0372201E0,-3.830811E-1,-2.0386662E0,1.916832E0,-5.587685E-1,-1.2247572E0,-3.4323893E-2,9.8103535E-1,3.672825E0,5.1635057E-1,2.0345955E0,6.3568177E0,2.4124427E-1,-8.479566E-1,8.1210005E-1,6.708516E0,3.6240506E-1,6.638243E0,-1.0712084E0,1.9671372E0,-2.9174943E0,9.794323E-1,2.0835664E0,-2.4233177E0,-8.346062E-2,2.7683425E0,-2.237927E0,1.3279377E-1,7.405478E-1,7.492767E0,3.2326322E0,-1.117368E0,9.484944E-1,-5.7457525E-1,1.2729294E0,3.8134549E0],"categories":[],"categories_nodes":[],"categories_segments":[],"categories_sizes":[],"default_left":[0,0,0,0,0,0,0,0,0,0,0,0,0,0,0,0,0,0,0,0,0,0,0,0,0,0,0,0,0,0,0,0,0,0,0,0,0,0,0,0,0,0,0,0,0,0,0,0,0,0,0,0,0,0,0,0,0,0,0,0,0,0,0,0,0,0,0,0,0,0,0,0,0,0,0,0,0,0,0,0,0,0,0,0,0,0,0,0,0,0,0,0,0,0,0,0,0,0,0,0,0,0,0,0,0,0,0,0,0,0,0,0,0,0,0,0,0,0,0],"id":5,"left_children":[1,3,5,7,9,11,13,15,17,19,21,23,25,27,29,31,33,35,37,39,41,43,45,47,49,51,53,55,57,59,61,63,-1,65,67,69,-1,71,73,75,77,79,81,83,-1,85,87,89,91,93,-1,95,97,99,101,103,105,107,109,111,113,115,117,-1,-1,-1,-1,-1,-1,-1,-1,-1,-1,-1,-1,-1,-1,-1,-1,-1,-1,-1,-1,-1,-1,-1,-1,-1,-1,-1,-1,-1,-1,-1,-1,-1,-1,-1,-1,-1,-1,-1,-1,-1,-1,-1,-1,-1,-1,-1,-1,-1,-1,-1,-1,-1,-1,-1,-1],"loss_changes":[1.1564096E4,1.7756626E3,3.8383452E3,4.4453955E2,1.3123588E3,2.4046697E3,1.6828779E3,1.457273E2,4.1623535E2,1.2338544E3,5.920752E2,2.0407139E3,2.0057253E3,8.391699E2,4.45448E2,1.400517E2,3.6568213E2,6.3252594E1,3.8083032E2,6.470247E2,6.662887E2,5.342755E2,6.8242334E2,1.8747529E3,3.6049194E2,1.4448998E3,1.3386183E3,8.4546045E2,1.094266E3,3.4730615E2,1.4910138E2,8.606756E-2,0E0,2.777977E2,1.3611499E2,1.8365784E1,0E0,3.8233618E2,1.905824E2,4.4975916E2,4.0103015E2,5.6101013E2,5.832654E2,5.314066E2,0E0,6.511714E2,6.504619E2,8.4189465E2,4.2802173E2,2.6058594E2,0E0,1.0688168E3,1.1390022E3,1.3697932E3,7.7558044E2,7.482813E2,8.368662E2,8.8599207E2,4.710081E2,3.3917627E2,1.9367838E2,2.9331244E1,2.6704529E1,0E0,0E0,0E0,0E0,0E0,0E0,0E0,0E0,0E0,0E0,0E0,0E0,0E0,0E0,0E0,0E0,0E0,0E0,0E0,0E0,0E0,0E0,0E0,0E0,0E0,0E0,0E0,0E0,0E0,0E0,0E0,0E0,0E0,0E0,0E0,0E0,0E0,0E0,0E0,0E0,0E0,0E0,0E0,0E0,0E0,0E0,0E0,0E0,0E0,0E0,0E0,0E0,0E0,0E0,0E0,0E0],"parents":[2147483647,0,0,1,1,2,2,3,3,4,4,5,5,6,6,7,7,8,8,9,9,10,10,11,11,12,12,13,13,14,14,15,15,16,16,17,17,18,18,19,19,20,20,21,21,22,22,23,23,24,24,25,25,26,26,27,27,28,28,29,29,30,30,31,31,33,33,34,34,35,35,37,37,38,38,39,39,40,40,41,41,42,42,43,43,45,45,46,46,47,47,48,48,49,49,51,51,52,52,53,53,54,54,55,55,56,56,57,57,58,58,59,59,60,60,61,61,62,62],"right_children":[2,4,6,8,10,12,14,16,18,20,22,24,26,28,30,32,34,36,38,40,42,44,46,48,50,52,54,56,58,60,62,64,-1,66,68,70,-1,72,74,76,78,80,82,84,-1,86,88,90,92,94,-1,96,98,100,102,104,106,108,110,112,114,116,118,-1,-1,-1,-1,-1,-1,-1,-1,-1,-1,-1,-1,-1,-1,-1,-1,-1,-1,-1,-1,-1,-1,-1,-1,-1,-1,-1,-1,-1,-1,-1,-1,-1,-1,-1,-1,-1,-1,-1,-1,-1,-1,-1,-1,-1,-1,-1,-1,-1,-1,-1,-1,-1,-1,-1,-1],"split_conditions":[3.9E1,2.2E1,6.5E1,1.2E1,1E-1,3.6E1,1.06E2,8.638666E0,1.0666667E1,8.940584E0,1.5856354E1,4.6666668E1,3.0980072E2,7E1,1.9191748E1,9E0,1.2603251E1,1E-1,2.7E1,3.0380728E2,1.6282405E2,7.4E1,1.6E1,2.6586412E1,5.4666668E1,5.4E1,1.1592894E1,7.901167E0,2E-1,2.341558E1,8.710028E1,4E0,-3.0753045E0,1.1226001E1,3.4411978E2,5.7989163E0,-5.0396895E-1,7.8310646E1,1E-1,2.949764E2,8.7E1,1.5141414E1,3.0923013E2,9.75725E0,2.9244525E0,1.0739048E2,2.973291E2,1.4650769E2,2.9369753E1,1.4917212E1,-3.0145627E-1,5.9E1,3.097047E2,4.3E0,6.3E1,2.1868332E1,5.6199993E1,1.7576E1,1.4345898E1,5.3E1,1.05333336E2,1.10333336E2,7.4E0,-6.1948016E-2,-2.7598745E-1,-6.732798E-1,2.7873666E0,-1.8532331E0,4.7372803E-1,2.1542989E-1,1.8579892E0,4.045476E-1,-1.3160791E0,-3.7868986E-1,-9.1401374E-1,-6.871514E-1,8.1075907E-1,-7.538169E-1,2.7609298E0,3.1516948E-1,-1.0617992E0,8.2390994E-1,-1.325962E-2,1.0372201E0,-3.830811E-1,-2.0386662E0,1.916832E0,-5.587685E-1,-1.2247572E0,-3.4323893E-2,9.8103535E-1,3.672825E0,5.1635057E-1,2.0345955E0,6.3568177E0,2.4124427E-1,-8.479566E-1,8.1210005E-1,6.708516E0,3.6240506E-1,6.638243E0,-1.0712084E0,1.9671372E0,-2.9174943E0,9.794323E-1,2.0835664E0,-2.4233177E0,-8.346062E-2,2.7683425E0,-2.237927E0,1.3279377E-1,7.405478E-1,7.492767E0,3.2326322E0,-1.117368E0,9.484944E-1,-5.7457525E-1,1.2729294E0,3.8134549E0],"split_indices":[1,1,1,1,5,2,1,4,0,4,6,0,7,2,6,2,4,5,3,7,7,3,2,4,0,1,6,4,5,4,7,0,0,4,7,4,0,7,5,7,3,6,7,4,0,7,7,7,4,6,0,2,7,5,1,6,5,4,6,2,0,0,5,0,0,0,0,0,0,0,0,0,0,0,0,0,0,0,0,0,0,0,0,0,0,0,0,0,0,0,0,0,0,0,0,0,0,0,0,0,0,0,0,0,0,0,0,0,0,0,0,0,0,0,0,0,0,0,0],"split_type":[0,0,0,0,0,0,0,0,0,0,0,0,0,0,0,0,0,0,0,0,0,0,0,0,0,0,0,0,0,0,0,0,0,0,0,0,0,0,0,0,0,0,0,0,0,0,0,0,0,0,0,0,0,0,0,0,0,0,0,0,0,0,0,0,0,0,0,0,0,0,0,0,0,0,0,0,0,0,0,0,0,0,0,0,0,0,0,0,0,0,0,0,0,0,0,0,0,0,0,0,0,0,0,0,0,0,0,0,0,0,0,0,0,0,0,0,0,0,0],"sum_hessian":[3.931E3,2.12E3,1.811E3,5.05E2,1.615E3,1.518E3,2.93E2,6.6E1,4.39E2,7.45E2,8.7E2,3.98E2,1.12E3,2.76E2,1.7E1,1.2E1,5.4E1,7E0,4.32E2,3.16E2,4.29E2,2.25E2,6.45E2,3.87E2,1.1E1,9.17E2,2.03E2,1.8E2,9.6E1,9E0,8E0,2E0,1E1,8E0,4.6E1,6E0,1E0,1.88E2,2.44E2,7.7E1,2.39E2,1.05E2,3.24E2,2.21E2,4E0,1.9E1,6.26E2,3.58E2,2.9E1,1E1,1E0,6.16E2,3.01E2,1.8E1,1.85E2,2.1E1,1.59E2,4.2E1,5.4E1,7E0,2E0,3E0,5E0,1E0,1E0,6E0,2E0,4.4E1,2E0,1E0,5E0,1.2E1,1.76E2,1.3E2,1.14E2,2.7E1,5E1,2.37E2,2E0,5.5E1,5E1,2.07E2,1.17E2,2.6E1,1.95E2,4E0,1.5E1,4.35E2,1.91E2,1.03E2,2.55E2,2.4E1,5E0,3E0,7E0,5.21E2,9.5E1,2.99E2,2E0,1.5E1,3E0,1.78E2,7E0,5E0,1.6E1,1.56E2,3E0,1.5E1,2.7E1,8E0,4.6E1,1E0,6E0,1E0,1E0,2E0,1E0,2E0,3E0],"tree_param":{"num_deleted":"0","num_feature":"8","num_nodes":"119","size_leaf_vector":"1"}},{"base_weights":[2.9941157E-2,-7.522825E-1,1.9630358E0,-1.9187605E0,-3.001091E-1,1.6283038E0,6.7313194E0,-1.9708595E0,1.2266579E1,2.1175843E-1,-1.4447677E0,2.8724015E0,7.7459824E-1,8.94987E0,-1.6184796E-1,-3.6252086E0,-1.4933841E0,4.44112E0,1.0788403E0,8.455738E-1,-1.1491375E0,-5.5417676E0,-1.2787564E0,3.6285355E0,-8.8546795E-1,2.3613744E0,-5.180232E-1,1.108321E1,4.2121453E0,3.2031083E0,-6.3879313E0,-3.165733E0,-9.564319E0,-3.9937735E-1,-2.3286295E0,-4.5497996E-1,1.5910311E0,-1.3083112E0,7.6893682E0,-6.7944694E0,1.6475906E0,-7.5429946E-1,-2.8789234E0,-2.1046705E0,4.215347E0,4.5869613E-1,-7.1245866E0,-5.743596E-1,4.589535E0,-8.419514E-1,5.838576E0,8.455599E0,1.6071735E1,1.039837E1,1.2600384E0,-1.502388E0,7.451018E0,-3.0894017E0,-8.8087463E-1,-1.1290283E0,-4.720868E-3,1.6822587E-1,-3.1607275E0,-8.1130975E-1,-1.7515823E-2,-1.4116299E-1,-9.46261E-1,4.6655512E-1,-3.9192507E-1,-1.4695294E-1,7.898042E-1,-3.394512E-1,-3.1944478E0,-7.6394063E-1,2.8546238E0,-2.25635E0,1.2699257E0,5.071975E-1,-3.658665E-1,1.0464787E-1,-1.223285E0,4.2094967E-1,-2.3637333E0,9.87901E-1,2.3396785E0,-9.5239544E-1,6.533821E-1,-3.3033476E0,-2.2651787E-1,2.4070168E0,-3.2515374E-1,9.135988E0,1.1209849E0,-4.3805707E-1,1.0744953E0,3.231546E0,-1.5003023E0,3.245644E0,-4.8563635E-1,5.115418E-1,5.166833E0,4.337578E0,1.4260832E0,-6.678528E-1,1.2458915E0,-1.1611807E0,8.836296E-1,3.6472695E0,-8.630696E-1,3.4252626E-1,-5.807007E-1],"categories":[],"categories_nodes":[],"categories_segments":[],"categories_sizes":[],"default_left":[0,0,0,0,0,0,0,0,0,0,0,0,0,0,0,0,0,0,0,0,0,0,0,0,0,0,0,0,0,0,0,0,0,0,0,0,0,0,0,0,0,0,0,0,0,0,0,0,0,0,0,0,0,0,0,0,0,0,0,0,0,0,0,0,0,0,0,0,0,0,0,0,0,0,0,0,0,0,0,0,0,0,0,0,0,0,0,0,0,0,0,0,0,0,0,0,0,0,0,0,0,0,0,0,0,0,0,0,0,0,0],"id":6,"left_children":[1,3,5,7,9,11,13,15,17,19,21,23,25,27,29,31,33,-1,-1,35,37,39,41,43,45,47,49,51,53,55,57,59,61,63,65,67,69,71,73,75,-1,77,79,81,83,85,87,89,91,93,95,97,99,101,103,105,107,-1,109,-1,-1,-1,-1,-1,-1,-1,-1,-1,-1,-1,-1,-1,-1,-1,-1,-1,-1,-1,-1,-1,-1,-1,-1,-1,-1,-1,-1,-1,-1,-1,-1,-1,-1,-1,-1,-1,-1,-1,-1,-1,-1,-1,-1,-1,-1,-1,-1,-1,-1,-1,-1],"loss_changes":[5.9471025E3,1.4762849E3,1.797418E3,6.021072E2,1.1832654E3,1.1235938E3,1.1331191E3,6.107168E2,1.2758545E1,1.2051008E3,4.173258E2,1.2278792E3,1.2934169E3,5.193174E2,4.1852072E2,4.445464E2,5.5372485E2,0E0,0E0,9.2466437E2,6.347049E2,3.6904266E2,5.0219885E2,1.2166592E3,6.1547516E2,1.8538207E3,7.2147614E2,3.622041E2,3.338832E2,2.710451E2,1.4165973E2,3.0682703E2,1.239386E2,2.0734106E2,5.262073E2,5.976433E2,1.3148197E3,7.095926E2,1.7375937E2,2.0813885E2,0E0,5.185005E2,5.7404626E2,6.9975244E2,1.0518438E3,3.8795752E2,3.135091E2,5.4748944E2,3.437818E3,9.1319775E2,9.6293317E2,6.603275E2,1.6907153E2,6.878339E1,1.5044063E2,8.513434E1,3.7523782E2,0E0,1.0743888E1,0E0,0E0,0E0,0E0,0E0,0E0,0E0,0E0,0E0,0E0,0E0,0E0,0E0,0E0,0E0,0E0,0E0,0E0,0E0,0E0,0E0,0E0,0E0,0E0,0E0,0E0,0E0,0E0,0E0,0E0,0E0,0E0,0E0,0E0,0E0,0E0,0E0,0E0,0E0,0E0,0E0,0E0,0E0,0E0,0E0,0E0,0E0,0E0,0E0,0E0,0E0,0E0],"parents":[2147483647,0,0,1,1,2,2,3,3,4,4,5,5,6,6,7,7,8,8,9,9,10,10,11,11,12,12,13,13,14,14,15,15,16,16,19,19,20,20,21,21,22,22,23,23,24,24,25,25,26,26,27,27,28,28,29,29,30,30,31,31,32,32,33,33,34,34,35,35,36,36,37,37,38,38,39,39,41,41,42,42,43,43,44,44,45,45,46,46,47,47,48,48,49,49,50,50,51,51,52,52,53,53,54,54,55,55,56,56,58,58],"right_children":[2,4,6,8,10,12,14,16,18,20,22,24,26,28,30,32,34,-1,-1,36,38,40,42,44,46,48,50,52,54,56,58,60,62,64,66,68,70,72,74,76,-1,78,80,82,84,86,88,90,92,94,96,98,100,102,104,106,108,-1,110,-1,-1,-1,-1,-1,-1,-1,-1,-1,-1,-1,-1,-1,-1,-1,-1,-1,-1,-1,-1,-1,-1,-1,-1,-1,-1,-1,-1,-1,-1,-1,-1,-1,-1,-1,-1,-1,-1,-1,-1,-1,-1,-1,-1,-1,-1,-1,-1,-1,-1,-1,-1],"split_conditions":[4.7E1,2.7666666E1,8.3E1,4.5E1,2.6E0,4.7E1,2.759689E2,5.7989163E0,2.7E1,3.0785413E2,2.2142754E1,3.1184302E2,1E-1,1.9191748E1,1.4105167E1,3.3E1,1E-1,4.44112E0,1.0788403E0,1.8532983E2,1.8000001E0,6E1,2.8452075E2,6.7871376E1,5.8E1,1.6076002E1,8.2E1,9.8E1,4.2E1,1E-1,7.5E1,3.1650565E2,2.4E1,1.3E1,1.4326E1,1.3708391E1,9.088667E0,1.4000001E0,2.2E1,4.7E1,1.6475906E0,1.5319916E1,9.228085E0,5.3002296E1,4.7E1,3.3E1,1.1463501E1,7.193697E1,1.618225E1,2.6878084E1,8.1E1,8.9E1,1.9440157E1,1.1676E1,6.2E1,3.1057385E2,7.7666664E1,-3.0894017E0,7.5333336E1,-1.1290283E0,-4.720868E-3,1.6822587E-1,-3.1607275E0,-8.1130975E-1,-1.7515823E-2,-1.4116299E-1,-9.46261E-1,4.6655512E-1,-3.9192507E-1,-1.4695294E-1,7.898042E-1,-3.394512E-1,-3.1944478E0,-7.6394063E-1,2.8546238E0,-2.25635E0,1.2699257E0,5.071975E-1,-3.658665E-1,1.0464787E-1,-1.223285E0,4.2094967E-1,-2.3637333E0,9.87901E-1,2.3396785E0,-9.5239544E-1,6.533821E-1,-3.3033476E0,-2.2651787E-1,2.4070168E0,-3.2515374E-1,9.135988E0,1.1209849E0,-4.3805707E-1,1.0744953E0,3.231546E0,-1.5003023E0,3.245644E0,-4.8563635E-1,5.115418E-1,5.166833E0,4.337578E0,1.4260832E0,-6.678528E-1,1.2458915E0,-1.1611807E0,8.836296E-1,3.6472695E0,-8.630696E-1,3.4252626E-1,-5.807007E-1],"split_indices":[1,0,1,1,5,2,7,4,0,7,7,7,5,6,4,1,5,0,0,7,5,3,7,7,1,4,3,1,3,5,0,7,0,3,4,6,4,5,2,5,0,4,4,7,3,2,4,7,4,4,2,2,7,4,3,7,0,0,0,0,0,0,0,0,0,0,0,0,0,0,0,0,0,0,0,0,0,0,0,0,0,0,0,0,0,0,0,0,0,0,0,0,0,0,0,0,0,0,0,0,0,0,0,0,0,0,0,0,0,0,0],"split_type":[0,0,0,0,0,0,0,0,0,0,0,0,0,0,0,0,0,0,0,0,0,0,0,0,0,0,0,0,0,0,0,0,0,0,0,0,0,0,0,0,0,0,0,0,0,0,0,0,0,0,0,0,0,0,0,0,0,0,0,0,0,0,0,0,0,0,0,0,0,0,0,0,0,0,0,0,0,0,0,0,0,0,0,0,0,0,0,0,0,0,0,0,0,0,0,0,0,0,0,0,0,0,0,0,0,0,0,0,0,0,0],"sum_hessian":[3.931E3,2.799E3,1.132E3,7.81E2,2.018E3,1.059E3,7.3E1,7.79E2,2E0,1.395E3,6.23E2,4.3E2,6.29E2,5.5E1,1.8E1,1.73E2,6.06E2,1E0,1E0,9.52E2,4.43E2,2.3E1,6E2,3.58E2,7.2E1,2.82E2,3.47E2,3.7E1,1.8E1,1.2E1,6E0,1.62E2,1.1E1,2.63E2,3.43E2,3.47E2,6.05E2,4.36E2,7E0,2.1E1,2E0,4.53E2,1.47E2,3.3E1,3.25E2,6E1,1.2E1,1.22E2,1.6E2,3.31E2,1.6E1,2.6E1,1.1E1,5E0,1.3E1,6E0,6E0,3E0,3E0,1.36E2,2.6E1,1E0,1E1,3.3E1,2.3E2,1.06E2,2.37E2,1.03E2,2.44E2,2.02E2,4.03E2,4.29E2,7E0,1E0,6E0,2E1,1E0,7.2E1,3.81E2,4E1,1.07E2,2.1E1,1.2E1,2.6E2,6.5E1,1.9E1,4.1E1,7E0,5E0,6E0,1.16E2,4E0,1.56E2,2.91E2,4E1,1.1E1,5E0,2.1E1,5E0,1E0,1E1,2E0,3E0,6E0,7E0,4E0,2E0,4E0,2E0,1E0,2E0],"tree_param":{"num_deleted":"0","num_feature":"8","num_nodes":"111","size_leaf_vector":"1"}},{"base_weights":[2.7230069E-2,-3.7890047E-1,2.2057018E0,-1.0677543E0,2.0856872E-1,-3.6560307E0,2.4180174E0,-2.7770057E0,-8.835361E-1,5.6577194E-1,-1.42168E0,-2.1311464E0,-3.7809744E0,4.1897562E-1,3.1489732E0,-1.0196178E1,-2.4462922E0,-6.5813214E-1,-2.2652507E0,-3.7420368E-1,1.2450206E0,1.066678E1,-1.6072793E0,-3.5664206E0,4.6756697E-1,6.156816E0,-3.9212143E-1,3.7583349E0,2.512008E-1,-4.2892966E0,-3.9864504E-1,-1.171692E0,-4.0925975E0,-2.9869407E-2,-1.2895283E0,-5.5683117E0,-1.8077322E0,1.2135447E0,-1.2203369E0,1.3914973E0,-1.00935955E1,-2.6507213E0,6.128607E0,-5.199271E0,-1.0717436E0,5.3037643E-1,-4.8484974E0,-1.259725E0,1.1298887E0,-1.1990083E0,8.688691E0,-3.6123652E0,-5.4074652E-2,4.785199E0,1.9189152E0,-3.412524E0,4.9851036E0,9.3340343E-1,-8.682255E-1,-2.017229E0,-9.5549744E-1,-1.9662529E-1,2.4623892E-1,-2.2579348E-1,-8.2032275E-1,1.7075585E0,-2.073525E0,1.1890475E0,-6.5724343E-1,2.62483E-1,3.8587008E0,-5.489968E-1,1.1778864E0,8.669513E-1,9.968416E-2,-4.024225E0,-1.0278578E0,1.4299221E-1,-1.3358169E0,-2.219301E0,-3.9057565E-1,-1.7308723E0,-1.5675248E-1,-3.9339983E-1,4.7441712E-1,-7.8464264E-1,-2.756117E0,1.0132331E0,-8.587942E-1,-1.4594907E0,5.550642E-1,3.2421322E0,4.8381332E-2,8.278754E-1,-4.8498535E-1,2.0823915E0,7.6499563E-1,-4.3728877E-2,1.8013979E0,-1.7191788E0,7.668001E-1,3.2426958E0,2.5953883E-1],"categories":[],"categories_nodes":[],"categories_segments":[],"categories_sizes":[],"default_left":[0,0,0,0,0,0,0,0,0,0,0,0,0,0,0,0,0,0,0,0,0,0,0,0,0,0,0,0,0,0,0,0,0,0,0,0,0,0,0,0,0,0,0,0,0,0,0,0,0,0,0,0,0,0,0,0,0,0,0,0,0,0,0,0,0,0,0,0,0,0,0,0,0,0,0,0,0,0,0,0,0,0,0,0,0,0,0,0,0,0,0,0,0,0,0,0,0,0,0,0,0,0,0],"id":7,"left_children":[1,3,5,7,9,11,13,15,17,19,21,23,-1,25,27,29,31,33,35,37,39,41,43,45,47,49,51,53,55,-1,-1,57,59,61,63,65,67,69,71,73,75,77,-1,79,81,83,85,87,-1,89,91,-1,93,95,97,99,101,-1,-1,-1,-1,-1,-1,-1,-1,-1,-1,-1,-1,-1,-1,-1,-1,-1,-1,-1,-1,-1,-1,-1,-1,-1,-1,-1,-1,-1,-1,-1,-1,-1,-1,-1,-1,-1,-1,-1,-1,-1,-1,-1,-1,-1,-1],"loss_changes":[3.479649E3,1.3417383E3,7.7796436E2,4.7804602E2,1.0431752E3,2.7329688E2,8.710239E2,3.381931E2,4.2799023E2,9.383888E2,7.395873E2,7.626486E1,0E0,7.516994E2,7.7070703E2,1.9921667E2,2.952732E2,4.7082373E2,2.8159784E2,8.3038745E2,1.4307434E3,7.041719E2,6.061452E2,7.085283E1,5.0327427E1,3.8289838E2,5.5853625E2,6.72687E2,1.352478E3,0E0,0E0,6.139244E2,1.26662476E2,3.176889E2,4.5717566E2,3.8726978E2,3.8673596E2,8.3676996E2,1.2716589E3,1.3369373E3,1.9757007E2,1.902888E1,0E0,3.4165417E2,7.1428503E2,9.816377E0,7.285245E1,5.4266552E1,0E0,7.6071205E1,2.6922656E2,0E0,6.1556964E2,1.0955708E3,1.1059583E3,6.234079E2,8.064531E2,0E0,0E0,0E0,0E0,0E0,0E0,0E0,0E0,0E0,0E0,0E0,0E0,0E0,0E0,0E0,0E0,0E0,0E0,0E0,0E0,0E0,0E0,0E0,0E0,0E0,0E0,0E0,0E0,0E0,0E0,0E0,0E0,0E0,0E0,0E0,0E0,0E0,0E0,0E0,0E0,0E0,0E0,0E0,0E0,0E0,0E0],"parents":[2147483647,0,0,1,1,2,2,3,3,4,4,5,5,6,6,7,7,8,8,9,9,10,10,11,11,13,13,14,14,15,15,16,16,17,17,18,18,19,19,20,20,21,21,22,22,23,23,24,24,25,25,26,26,27,27,28,28,31,31,32,32,33,33,34,34,35,35,36,36,37,37,38,38,39,39,40,40,41,41,43,43,44,44,45,45,46,46,47,47,49,49,50,50,52,52,53,53,54,54,55,55,56,56],"right_children":[2,4,6,8,10,12,14,16,18,20,22,24,-1,26,28,30,32,34,36,38,40,42,44,46,48,50,52,54,56,-1,-1,58,60,62,64,66,68,70,72,74,76,78,-1,80,82,84,86,88,-1,90,92,-1,94,96,98,100,102,-1,-1,-1,-1,-1,-1,-1,-1,-1,-1,-1,-1,-1,-1,-1,-1,-1,-1,-1,-1,-1,-1,-1,-1,-1,-1,-1,-1,-1,-1,-1,-1,-1,-1,-1,-1,-1,-1,-1,-1,-1,-1,-1,-1,-1,-1],"split_conditions":[5.6E1,3.3E1,5.322E0,1.6E1,3.0822075E1,4.948916E0,1.1648879E2,4.901967E1,1.3E1,1.8532983E2,1.8E1,3.984333E0,-3.7809744E0,1.1773917E1,3.0980072E2,2.55E1,2.1924562E1,2.2238562E1,2.1E1,1.8390583E1,3.1000002E1,2E1,4.3282504E0,2.6178707E1,5.9333332E1,9.351167E0,1.203225E1,2.341558E1,3.2016367E2,-4.2892966E0,-3.9864504E-1,1.2603251E1,5.322E0,1.7610588E1,3.1209714E2,4.901967E1,2E1,1.8182251E1,6E1,3.7E1,4.3E1,2.4E1,6.128607E0,3.1057385E2,3.1559086E1,2.1E1,3.6447504E0,3.0800226E2,1.1298887E0,1.4583004E1,6.8333336E1,-3.6123652E0,1.6746773E1,5.8666668E1,6.3333332E1,6.4E1,1E-1,9.3340343E-1,-8.682255E-1,-2.017229E0,-9.5549744E-1,-1.9662529E-1,2.4623892E-1,-2.2579348E-1,-8.2032275E-1,1.7075585E0,-2.073525E0,1.1890475E0,-6.5724343E-1,2.62483E-1,3.8587008E0,-5.489968E-1,1.1778864E0,8.669513E-1,9.968416E-2,-4.024225E0,-1.0278578E0,1.4299221E-1,-1.3358169E0,-2.219301E0,-3.9057565E-1,-1.7308723E0,-1.5675248E-1,-3.9339983E-1,4.7441712E-1,-7.8464264E-1,-2.756117E0,1.0132331E0,-8.587942E-1,-1.4594907E0,5.550642E-1,3.2421322E0,4.8381332E-2,8.278754E-1,-4.8498535E-1,2.0823915E0,7.6499563E-1,-4.3728877E-2,1.8013979E0,-1.7191788E0,7.668001E-1,3.2426958E0,2.5953883E-1],"split_indices":[1,1,4,3,6,4,7,7,5,7,2,4,0,4,7,5,6,6,0,4,5,3,4,6,0,4,4,4,7,0,0,4,4,6,7,7,2,4,3,2,1,0,0,7,6,3,4,7,0,7,0,0,6,0,0,1,5,0,0,0,0,0,0,0,0,0,0,0,0,0,0,0,0,0,0,0,0,0,0,0,0,0,0,0,0,0,0,0,0,0,0,0,0,0,0,0,0,0,0,0,0,0,0],"split_type":[0,0,0,0,0,0,0,0,0,0,0,0,0,0,0,0,0,0,0,0,0,0,0,0,0,0,0,0,0,0,0,0,0,0,0,0,0,0,0,0,0,0,0,0,0,0,0,0,0,0,0,0,0,0,0,0,0,0,0,0,0,0,0,0,0,0,0,0,0,0,0,0,0,0,0,0,0,0,0,0,0,0,0,0,0,0,0,0,0,0,0,0,0,0,0,0,0,0,0,0,0,0,0],"sum_hessian":[3.931E3,3.314E3,6.17E2,1.525E3,1.789E3,2.1E1,5.96E2,1.47E2,1.378E3,1.468E3,3.21E2,1.9E1,2E0,1.6E2,4.36E2,5E0,1.42E2,1.186E3,1.92E2,6.16E2,8.52E2,4E0,3.17E2,1.2E1,7E0,1.9E1,1.41E2,3.6E2,7.6E1,3E0,2E0,8.1E1,6.1E1,5.95E2,5.91E2,2.2E1,1.7E2,2.14E2,4.02E2,8.42E2,1E1,2E0,2E0,4E1,2.77E2,3E0,9E0,5E0,2E0,5E0,1.4E1,3E0,1.38E2,2.3E2,1.3E2,4.3E1,3.3E1,2.3E1,5.8E1,1.4E1,4.7E1,3.43E2,2.52E2,4.32E2,1.59E2,2E0,2E1,1E1,1.6E2,2.09E2,5E0,3.6E2,4.2E1,3.48E2,4.94E2,6E0,4E0,1E0,1E0,2.5E1,1.5E1,2.8E1,2.49E2,1E0,2E0,7E0,2E0,1E0,4E0,2E0,3E0,1.1E1,3E0,4.9E1,8.9E1,1.16E2,1.14E2,8.7E1,4.3E1,3.1E1,1.2E1,1.3E1,2E1],"tree_param":{"num_deleted":"0","num_feature":"8","num_nodes":"103","size_leaf_vector":"1"}},{"base_weights":[1.7278481E-2,-7.252533E-1,6.04601E-1,-2.9304686E-1,-1.480467E0,1.4835608E0,-1.0891998E-1,-7.506518E-1,1.0725915E0,-1.2819371E0,-4.0416903E0,3.4094808E0,8.982179E-1,-8.442417E-1,1.2224007E0,-2.4453347E0,-3.0976942E-1,1.7173945E0,-2.591477E0,-9.1644007E-1,-2.916401E0,-1.0383671E1,-2.3898118E0,5.578232E0,3.1256402E0,1.2340883E0,-1.9553133E0,-4.5666103E0,-5.2297807E-1,4.8159184E0,5.142179E-1,-2.889794E0,2.369695E0,4.572885E-2,-2.5292063E0,3.6060681E0,1.8772167E-1,-3.6725693E0,8.597041E0,-1.0648917E0,6.1969647E0,-3.6676521E0,6.838791E0,-6.088563E-1,-3.3522751E0,-5.6195965E0,3.3857656E-1,-2.2724088E-2,4.238073E0,3.0709088E0,4.6840698E-1,-2.794539E0,5.9470353E0,-2.4504795E0,-1.1033788E1,1.03761405E-1,-2.3132596E0,1.748098E1,4.0000925E0,-1.1728868E1,6.8377435E-1,-9.091066E-1,2.8556614E0,1.5311804E0,-7.746959E-1,-1.1541326E0,6.9509864E-2,-9.4323295E-1,1.026778E0,2.028968E-1,2.3156927E0,2.0147732E-1,-1.9499342E0,-1.4025142E0,1.8803636E0,1.0099282E0,3.6433327E0,-2.5992855E-1,-1.8100395E0,2.9555864E0,-5.245528E-1,-8.1619203E-1,-2.4393787E0,2.873263E0,-1.8498703E0,4.1027346E-1,-2.5934653E0,-6.9212186E-1,1.0438495E0,5.693644E-1,-1.7733198E0,1.1614826E0,4.0278797E0,1.0012119E0,-3.2260654E0,-4.4648054E-1,3.4237307E-1,1.135179E0,-1.1696409E0,5.823918E0,-1.8045574E0,-2.990379E0,-2.7716774E-1,-2.228902E0,-4.227418E0,6.1649874E-2,-2.6701212E0,-8.047713E-1,2.7824178E0,1.5758091E0,5.941852E0,4.167514E-1,2.0181465E0,-6.6711676E-1,-4.064767E0,-7.478242E-1,3.5866854E-1],"categories":[],"categories_nodes":[],"categories_segments":[],"categories_sizes":[],"default_left":[0,0,0,0,0,0,0,0,0,0,0,0,0,0,0,0,0,0,0,0,0,0,0,0,0,0,0,0,0,0,0,0,0,0,0,0,0,0,0,0,0,0,0,0,0,0,0,0,0,0,0,0,0,0,0,0,0,0,0,0,0,0,0,0,0,0,0,0,0,0,0,0,0,0,0,0,0,0,0,0,0,0,0,0,0,0,0,0,0,0,0,0,0,0,0,0,0,0,0,0,0,0,0,0,0,0,0,0,0,0,0,0,0,0,0,0,0],"id":8,"left_children":[1,3,5,7,9,11,13,15,17,19,21,23,25,27,29,31,33,35,37,39,41,43,45,-1,47,49,51,53,55,57,59,61,63,65,67,69,71,73,75,77,79,81,83,-1,-1,85,87,89,91,93,95,97,99,101,103,105,107,109,111,113,115,-1,-1,-1,-1,-1,-1,-1,-1,-1,-1,-1,-1,-1,-1,-1,-1,-1,-1,-1,-1,-1,-1,-1,-1,-1,-1,-1,-1,-1,-1,-1,-1,-1,-1,-1,-1,-1,-1,-1,-1,-1,-1,-1,-1,-1,-1,-1,-1,-1,-1,-1,-1,-1,-1,-1,-1],"loss_changes":[1.7152059E3,5.665372E2,1.3773967E3,6.919697E2,3.161776E2,1.1062239E3,1.1884972E3,6.1863464E2,6.61254E2,3.4859344E2,4.4661328E2,9.2887476E2,7.26976E2,9.3277563E2,1.0969062E3,3.728025E2,5.200706E2,6.8402856E2,5.3959766E2,5.1558923E2,8.092426E2,3.6763123E1,3.2795068E2,0E0,7.9162573E2,9.507074E2,5.4716754E2,8.2145605E2,8.092309E2,6.636808E2,7.594935E2,3.0268103E2,2.1627988E2,4.1282098E2,3.4380115E2,1.272055E3,4.3150104E2,4.1794098E2,3.3336945E1,4.6118774E2,3.0763254E2,4.005869E2,3.4399753E2,0E0,0E0,3.7117218E2,1.8253278E2,6.897694E2,5.103318E2,7.6894885E2,6.323129E2,5.450514E2,1.4054423E3,5.4164075E2,6.060498E1,4.9192502E2,8.2516034E2,9.696777E0,4.748247E2,5.6383972E1,5.849822E2,0E0,0E0,0E0,0E0,0E0,0E0,0E0,0E0,0E0,0E0,0E0,0E0,0E0,0E0,0E0,0E0,0E0,0E0,0E0,0E0,0E0,0E0,0E0,0E0,0E0,0E0,0E0,0E0,0E0,0E0,0E0,0E0,0E0,0E0,0E0,0E0,0E0,0E0,0E0,0E0,0E0,0E0,0E0,0E0,0E0,0E0,0E0,0E0,0E0,0E0,0E0,0E0,0E0,0E0,0E0,0E0],"parents":[2147483647,0,0,1,1,2,2,3,3,4,4,5,5,6,6,7,7,8,8,9,9,10,10,11,11,12,12,13,13,14,14,15,15,16,16,17,17,18,18,19,19,20,20,21,21,22,22,24,24,25,25,26,26,27,27,28,28,29,29,30,30,31,31,32,32,33,33,34,34,35,35,36,36,37,37,38,38,39,39,40,40,41,41,42,42,45,45,46,46,47,47,48,48,49,49,50,50,51,51,52,52,53,53,54,54,55,55,56,56,57,57,58,58,59,59,60,60],"right_children":[2,4,6,8,10,12,14,16,18,20,22,24,26,28,30,32,34,36,38,40,42,44,46,-1,48,50,52,54,56,58,60,62,64,66,68,70,72,74,76,78,80,82,84,-1,-1,86,88,90,92,94,96,98,100,102,104,106,108,110,112,114,116,-1,-1,-1,-1,-1,-1,-1,-1,-1,-1,-1,-1,-1,-1,-1,-1,-1,-1,-1,-1,-1,-1,-1,-1,-1,-1,-1,-1,-1,-1,-1,-1,-1,-1,-1,-1,-1,-1,-1,-1,-1,-1,-1,-1,-1,-1,-1,-1,-1,-1,-1,-1,-1,-1,-1,-1],"split_conditions":[3.5666668E1,3E1,1E-1,2.9333334E1,2.6878084E1,1.5807239E1,5.2E1,5.7989163E0,1.22E1,3.1386188E2,2.6E1,2.7E1,3.168872E2,2E-1,1.2126E1,3.8161697E1,1.89E1,2.8899887E2,2.696975E1,3.1291476E2,1.66E1,2.3333334E1,3E-1,5.578232E0,1.3119748E1,4.1E1,6.7E1,5E1,2.8827118E2,3.8666668E1,1.2451001E1,4.4E1,2.7E1,2E0,3.4E1,1.5471431E2,5.1E1,3.4666668E1,2.8E1,4.0541176E1,3.2E1,3.6E1,2.8000002E1,-6.088563E-1,-3.3522751E0,2.4E1,1.2033546E2,5.5E1,9.5E1,6.6E1,1.9586117E1,1.8171976E1,7.6E1,1.08180374E2,2.1986542E1,6.6333336E1,6.9E1,3.7333332E1,9.351167E0,4.0333332E1,8.581516E1,-9.091066E-1,2.8556614E0,1.5311804E0,-7.746959E-1,-1.1541326E0,6.9509864E-2,-9.4323295E-1,1.026778E0,2.028968E-1,2.3156927E0,2.0147732E-1,-1.9499342E0,-1.4025142E0,1.8803636E0,1.0099282E0,3.6433327E0,-2.5992855E-1,-1.8100395E0,2.9555864E0,-5.245528E-1,-8.1619203E-1,-2.4393787E0,2.873263E0,-1.8498703E0,4.1027346E-1,-2.5934653E0,-6.9212186E-1,1.0438495E0,5.693644E-1,-1.7733198E0,1.1614826E0,4.0278797E0,1.0012119E0,-3.2260654E0,-4.4648054E-1,3.4237307E-1,1.135179E0,-1.1696409E0,5.823918E0,-1.8045574E0,-2.990379E0,-2.7716774E-1,-2.228902E0,-4.227418E0,6.1649874E-2,-2.6701212E0,-8.047713E-1,2.7824178E0,1.5758091E0,5.941852E0,4.167514E-1,2.0181465E0,-6.6711676E-1,-4.064767E0,-7.478242E-1,3.5866854E-1],"split_indices":[0,2,5,0,4,6,1,4,5,7,3,2,7,5,4,6,5,7,4,7,5,0,5,0,4,2,3,2,7,0,4,1,3,1,3,7,1,0,2,6,1,1,5,0,0,1,7,2,1,1,6,6,3,7,6,0,2,0,4,0,7,0,0,0,0,0,0,0,0,0,0,0,0,0,0,0,0,0,0,0,0,0,0,0,0,0,0,0,0,0,0,0,0,0,0,0,0,0,0,0,0,0,0,0,0,0,0,0,0,0,0,0,0,0,0,0,0],"split_type":[0,0,0,0,0,0,0,0,0,0,0,0,0,0,0,0,0,0,0,0,0,0,0,0,0,0,0,0,0,0,0,0,0,0,0,0,0,0,0,0,0,0,0,0,0,0,0,0,0,0,0,0,0,0,0,0,0,0,0,0,0,0,0,0,0,0,0,0,0,0,0,0,0,0,0,0,0,0,0,0,0,0,0,0,0,0,0,0,0,0,0,0,0,0,0,0,0,0,0,0,0,0,0,0,0,0,0,0,0,0,0,0,0,0,0,0,0],"sum_hessian":[3.931E3,1.736E3,2.195E3,1.105E3,6.31E2,9.83E2,1.212E3,8.28E2,2.77E2,5.87E2,4.4E1,2.28E2,7.55E2,7.81E2,4.31E2,1.7E2,6.58E2,2.36E2,4.1E1,4.81E2,1.06E2,8E0,3.6E1,3E0,2.25E2,6.76E2,7.9E1,6.1E1,7.2E2,7E1,3.61E2,1.56E2,1.4E1,5.68E2,9E1,1.05E2,1.31E2,3.8E1,3E0,4.72E2,9E0,9.9E1,7E0,1E0,7E0,1.6E1,2E1,5.9E1,1.66E2,1.98E2,4.78E2,7.2E1,7E0,4.7E1,1.4E1,5.34E2,1.86E2,3E0,6.7E1,4E0,3.57E2,1.55E2,1E0,9E0,5E0,2.5E1,5.43E2,8.2E1,8E0,6.2E1,4.3E1,1.23E2,8E0,3.5E1,3E0,2E0,1E0,4.55E2,1.7E1,6E0,3E0,8.3E1,1.6E1,6E0,1E0,5E0,1.1E1,1.1E1,9E0,4.5E1,1.4E1,1.61E2,5E0,1.95E2,3E0,1.22E2,3.56E2,1E1,6.2E1,3E0,4E0,7E0,4E1,8E0,6E0,5.29E2,5E0,1.81E2,5E0,1E0,2E0,3.5E1,3.2E1,1E0,3E0,4.9E1,3.08E2],"tree_param":{"num_deleted":"0","num_feature":"8","num_nodes":"117","size_leaf_vector":"1"}},{"base_weights":[1.3528285E-2,-1.753401E-1,1.5205636E0,6.010822E-1,-4.1395035E-1,1.3184022E0,6.16442E0,1.0792481E0,-9.113155E-1,-1.9673223E0,-2.4440192E-1,1.6851224E0,-1.9445133E0,3.8451471E0,4.531756E0,4.0929022E-1,2.8992567E0,-4.2072754E0,-1.2772681E-1,3.4876612E-1,-2.9104855E0,3.603742E-1,-7.04648E-1,3.0603797E0,7.9075664E-1,-1.1479981E1,-3.8774168E-1,2.9174352E0,1.2872176E0,1.0777895E0,-1.6902328E0,1.8902165E0,7.670511E0,-1.2631108E0,-6.7938676E0,-6.9526494E-1,4.4196744E0,-7.322572E-1,4.865813E0,-8.021494E0,-2.6069992E0,-1.0359833E0,7.457244E-1,-2.7837187E-1,-1.6390244E0,-3.9806563E-1,5.332006E0,-3.0770342E0,1.4739137E0,-1.9581312E0,-4.7254124E0,-4.8363175E0,1.373761E0,2.7818038E0,-2.048797E0,1.0343343E0,1.5947008E-1,1.9714296E0,-6.1814857E-1,1.0378415E-1,1.1155893E0,-1.8601333E0,2.8528454E0,7.264538E-1,-8.256039E-1,-2.4043837E0,2.7828742E-2,-6.5855503E-1,6.505456E-1,3.113902E0,-4.1588756E-1,-6.8616724E-1,1.0829529E0,2.7249277E0,3.135184E-1,-4.576497E-1,-3.6293726E0,-1.3133043E0,-5.2100915E-1,-9.6154936E-2,-2.2967231E0,-1.4068793E0,2.6216435E-1,-2.6888606E-1,2.7936366E-1,-1.6279005E0,-2.3854034E-1,-1.3237634E0,7.786476E-1,1.7994796E0,-2.158217E0,-1.6999788E0,1.189059E0,1.4551876E0,1.4987043E-1,-8.5202754E-1,-2.913151E-2,2.7904665E-1,-1.866332E0,-1.1385508E0,7.987347E-1,1.332245E-1,1.509213E0],"categories":[],"categories_nodes":[],"categories_segments":[],"categories_sizes":[],"default_left":[0,0,0,0,0,0,0,0,0,0,0,0,0,0,0,0,0,0,0,0,0,0,0,0,0,0,0,0,0,0,0,0,0,0,0,0,0,0,0,0,0,0,0,0,0,0,0,0,0,0,0,0,0,0,0,0,0,0,0,0,0,0,0,0,0,0,0,0,0,0,0,0,0,0,0,0,0,0,0,0,0,0,0,0,0,0,0,0,0,0,0,0,0,0,0,0,0,0,0,0,0,0,0],"id":9,"left_children":[1,3,5,7,9,11,13,15,17,19,21,23,25,-1,27,29,31,33,35,37,39,41,43,45,47,49,51,-1,53,55,57,59,61,63,65,67,69,71,73,75,77,79,81,83,85,87,89,91,93,95,-1,97,99,101,-1,-1,-1,-1,-1,-1,-1,-1,-1,-1,-1,-1,-1,-1,-1,-1,-1,-1,-1,-1,-1,-1,-1,-1,-1,-1,-1,-1,-1,-1,-1,-1,-1,-1,-1,-1,-1,-1,-1,-1,-1,-1,-1,-1,-1,-1,-1,-1,-1],"loss_changes":[1.119437E3,6.477406E2,4.0307104E2,5.9543506E2,7.0377527E2,5.0703577E2,1.3742615E2,7.6089404E2,5.1083267E2,5.755251E2,6.7162415E2,4.6374353E2,6.338643E2,0E0,2.5706573E2,6.446383E2,7.9431836E2,2.8080194E2,4.1858545E2,3.7955655E2,2.691477E2,5.619968E2,5.4521796E2,1.1727102E3,6.149085E2,2.1318604E2,3.0441873E2,0E0,1.5243741E2,4.4866818E2,3.5308774E2,3.9401254E2,7.987042E2,1.1089886E2,1.6887976E2,6.232966E2,6.372531E2,4.3362128E2,2.3220526E2,2.4634833E2,2.667002E2,1.0679316E3,5.738949E2,7.0490436E2,1.3668007E3,7.3250714E2,7.942566E2,6.605789E2,6.4572327E2,4.648267E0,0E0,9.362543E1,1.966163E2,5.0339134E1,0E0,0E0,0E0,0E0,0E0,0E0,0E0,0E0,0E0,0E0,0E0,0E0,0E0,0E0,0E0,0E0,0E0,0E0,0E0,0E0,0E0,0E0,0E0,0E0,0E0,0E0,0E0,0E0,0E0,0E0,0E0,0E0,0E0,0E0,0E0,0E0,0E0,0E0,0E0,0E0,0E0,0E0,0E0,0E0,0E0,0E0,0E0,0E0,0E0],"parents":[2147483647,0,0,1,1,2,2,3,3,4,4,5,5,6,6,7,7,8,8,9,9,10,10,11,11,12,12,14,14,15,15,16,16,17,17,18,18,19,19,20,20,21,21,22,22,23,23,24,24,25,25,26,26,28,28,29,29,30,30,31,31,32,32,33,33,34,34,35,35,36,36,37,37,38,38,39,39,40,40,41,41,42,42,43,43,44,44,45,45,46,46,47,47,48,48,49,49,51,51,52,52,53,53],"right_children":[2,4,6,8,10,12,14,16,18,20,22,24,26,-1,28,30,32,34,36,38,40,42,44,46,48,50,52,-1,54,56,58,60,62,64,66,68,70,72,74,76,78,80,82,84,86,88,90,92,94,96,-1,98,100,102,-1,-1,-1,-1,-1,-1,-1,-1,-1,-1,-1,-1,-1,-1,-1,-1,-1,-1,-1,-1,-1,-1,-1,-1,-1,-1,-1,-1,-1,-1,-1,-1,-1,-1,-1,-1,-1,-1,-1,-1,-1,-1,-1,-1,-1,-1,-1,-1,-1],"split_conditions":[6E1,1.5807239E1,1.06E2,2.4776E1,8.710028E1,8.2E1,7.4E1,1.4480773E1,2.4E1,1.3119748E1,2.973291E2,1.7782686E1,6.6E1,3.8451471E0,2E-1,1.3281023E1,5.5E1,1.9E1,2.6659552E2,4.3E1,1.3555168E1,2.8E1,1E-1,1.3979872E1,1.9191748E1,6.3E1,7.6333336E1,2.9174352E0,2.1084333E1,1.0126E1,1.8666666E1,1.1E0,8.145825E1,1.0554739E2,2.4893303E2,4.6E1,4E1,1.1676E1,9.088667E0,1.3307415E1,3.6000001E0,3.6333332E1,1.609969E1,3.8666668E1,3.033687E2,5.4666668E1,3.7100002E1,6.6333336E1,2.1166653E1,6.3E1,-4.7254124E0,6.8E1,1.3708391E1,1.11E2,-2.048797E0,1.0343343E0,1.5947008E-1,1.9714296E0,-6.1814857E-1,1.0378415E-1,1.1155893E0,-1.8601333E0,2.8528454E0,7.264538E-1,-8.256039E-1,-2.4043837E0,2.7828742E-2,-6.5855503E-1,6.505456E-1,3.113902E0,-4.1588756E-1,-6.8616724E-1,1.0829529E0,2.7249277E0,3.135184E-1,-4.576497E-1,-3.6293726E0,-1.3133043E0,-5.2100915E-1,-9.6154936E-2,-2.2967231E0,-1.4068793E0,2.6216435E-1,-2.6888606E-1,2.7936366E-1,-1.6279005E0,-2.3854034E-1,-1.3237634E0,7.786476E-1,1.7994796E0,-2.158217E0,-1.6999788E0,1.189059E0,1.4551876E0,1.4987043E-1,-8.5202754E-1,-2.913151E-2,2.7904665E-1,-1.866332E0,-1.1385508E0,7.987347E-1,1.332245E-1,1.509213E0],"split_indices":[1,6,1,4,7,2,0,6,1,4,7,6,1,0,5,6,3,2,7,1,4,3,5,6,6,1,0,0,4,4,0,5,7,7,7,3,0,4,4,4,5,0,6,0,7,0,5,0,6,0,0,1,6,1,0,0,0,0,0,0,0,0,0,0,0,0,0,0,0,0,0,0,0,0,0,0,0,0,0,0,0,0,0,0,0,0,0,0,0,0,0,0,0,0,0,0,0,0,0,0,0,0,0],"split_type":[0,0,0,0,0,0,0,0,0,0,0,0,0,0,0,0,0,0,0,0,0,0,0,0,0,0,0,0,0,0,0,0,0,0,0,0,0,0,0,0,0,0,0,0,0,0,0,0,0,0,0,0,0,0,0,0,0,0,0,0,0,0,0,0,0,0,0,0,0,0,0,0,0,0,0,0,0,0,0,0,0,0,0,0,0,0,0,0,0,0,0,0,0,0,0,0,0,0,0,0,0,0,0],"sum_hessian":[3.931E3,3.494E3,4.37E2,8.21E2,2.673E3,4.2E2,1.7E1,6.24E2,1.97E2,2.62E2,2.411E3,3.78E2,4.2E1,2E0,1.5E1,4.57E2,1.67E2,3.7E1,1.6E2,7.6E1,1.86E2,1.042E3,1.369E3,1.48E2,2.3E2,5E0,3.7E1,5E0,1E1,3.47E2,1.1E2,1.39E2,2.8E1,1.8E1,1.9E1,1.43E2,1.7E1,6.2E1,1.4E1,9E0,1.77E2,2.25E2,8.17E2,9.41E2,4.28E2,5.9E1,8.9E1,3.4E1,1.96E2,2E0,3E0,1E1,2.7E1,9E0,1E0,6.4E1,2.83E2,4E0,1.06E2,7.6E1,6.3E1,3E0,2.5E1,5E0,1.3E1,1.6E1,3E0,9.4E1,4.9E1,8E0,9E0,4.6E1,1.6E1,6E0,8E0,4E0,5E0,5.7E1,1.2E2,2.04E2,2.1E1,1.8E1,7.99E2,6.23E2,3.18E2,7.7E1,3.51E2,2.5E1,3.4E1,8.5E1,4E0,2.5E1,9E0,4.3E1,1.53E2,1E0,1E0,2E0,8E0,5E0,2.2E1,5E0,4E0],"tree_param":{"num_deleted":"0","num_feature":"8","num_nodes":"103","size_leaf_vector":"1"}},{"base_weights":[8.479348E-3,-3.9449483E-1,3.9518577E-1,-1.0325669E0,-1.1331476E-1,-1.4469776E0,6.044194E-1,-5.523321E-1,-4.266884E0,7.1989083E-1,-5.086873E-1,-1.8789183E0,6.3416967E0,1.1997051E0,1.8888691E-1,-6.803264E-1,6.705162E0,2.6372726E0,-4.896344E0,9.542324E-1,-2.9671311E0,-2.4930425E-1,-2.489976E0,-3.9861796E0,-9.576969E-1,3.6769786E0,-3.2074997E0,1.6523217E0,-6.5617996E-1,3.7196636E-2,3.9691372E0,7.2657526E-1,-1.1053497E0,4.173875E0,7.8246623E-1,-2.0007012E0,2.8464415E0,-5.340971E0,3.77524E0,-3.6836905E0,1.1539515E0,1.1529319E0,-5.614229E0,-8.405915E-1,5.478503E-1,-1.722911E0,-9.604802E0,-2.1630295E-1,-6.7517858E0,4.11241E0,-2.0709267E0,2.1346328E0,-2.2701287E0,1.5600784E0,1.0462897E1,6.195797E0,-1.372507E0,1.3332132E-1,-8.818394E0,-2.9558167E0,6.298342E0,-5.4019904E-1,6.2868994E-1,-6.43012E-1,-1.4185826E-1,-5.9914744E-1,1.268343E0,-1.1180035E0,1.1765289E-1,-1.3238866E0,-2.767989E0,1.7181962E0,-3.121502E-1,-6.3387084E-1,-3.09292E0,1.4473104E0,2.9211998E-1,-4.473137E-1,1.0814263E0,-2.4884257E0,1.3503084E0,-4.854785E-1,3.970856E-5,-6.3578873E-3,1.3245718E0,1.7041293E0,-6.068425E-1,-7.057055E-1,-3.7130837E0,1.9380983E0,-1.2393028E0,-2.2246497E-2,-2.4540176E0,3.0761456E0,1.8575093E-1,-2.4530606E0,-4.3917128E-1,5.428641E-1,-7.3638225E-1,-2.9875947E-2,3.7785938E0,-7.127401E-1,2.9586048E0,-2.871904E0,-1.8839097E-1,-6.3194144E-1,1.1346881E-1,9.131573E-1,-3.0927017E0,-1.7457457E0,1.0529423E0,2.5318186E0,-2.7363282E-1],"categories":[],"categories_nodes":[],"categories_segments":[],"categories_sizes":[],"default_left":[0,0,0,0,0,0,0,0,0,0,0,0,0,0,0,0,0,0,0,0,0,0,0,0,0,0,0,0,0,0,0,0,0,0,0,0,0,0,0,0,0,0,0,0,0,0,0,0,0,0,0,0,0,0,0,0,0,0,0,0,0,0,0,0,0,0,0,0,0,0,0,0,0,0,0,0,0,0,0,0,0,0,0,0,0,0,0,0,0,0,0,0,0,0,0,0,0,0,0,0,0,0,0,0,0,0,0,0,0,0,0,0,0],"id":10,"left_children":[1,3,5,7,9,11,13,15,17,19,21,23,25,27,29,31,33,35,37,39,41,43,45,47,49,-1,51,53,55,57,59,61,63,-1,65,67,-1,69,71,73,75,77,79,81,83,85,87,89,91,93,95,-1,-1,97,99,101,103,105,107,109,111,-1,-1,-1,-1,-1,-1,-1,-1,-1,-1,-1,-1,-1,-1,-1,-1,-1,-1,-1,-1,-1,-1,-1,-1,-1,-1,-1,-1,-1,-1,-1,-1,-1,-1,-1,-1,-1,-1,-1,-1,-1,-1,-1,-1,-1,-1,-1,-1,-1,-1,-1,-1],"loss_changes":[6.1289014E2,3.4543268E2,7.744579E2,9.1249664E2,4.4113904E2,7.0158594E2,4.4576453E2,4.8202548E2,3.432008E2,3.7522507E2,4.6601202E2,3.7472705E2,6.606207E2,6.2352747E2,6.0940546E2,3.0337387E2,3.733176E2,2.414019E2,2.9005676E2,3.8032126E2,2.900343E2,3.7942377E2,5.564929E2,6.1367316E2,7.817711E2,0E0,2.7886252E2,4.6805603E2,7.2510925E2,8.7199493E2,6.799318E2,4.1204593E2,2.5437991E2,0E0,6.590417E1,2.211177E1,0E0,2.0088196E2,4.356213E1,1.5515437E2,2.5327814E2,7.6683044E1,4.7116177E2,3.0205847E2,7.5493774E2,2.2463376E2,1.7193341E2,7.0625085E2,3.236676E2,5.2998645E2,4.06858E2,0E0,0E0,5.9635046E2,1.3639581E2,4.6338507E2,8.0603064E2,5.56471E2,2.2588116E2,2.2406985E2,4.862744E2,0E0,0E0,0E0,0E0,0E0,0E0,0E0,0E0,0E0,0E0,0E0,0E0,0E0,0E0,0E0,0E0,0E0,0E0,0E0,0E0,0E0,0E0,0E0,0E0,0E0,0E0,0E0,0E0,0E0,0E0,0E0,0E0,0E0,0E0,0E0,0E0,0E0,0E0,0E0,0E0,0E0,0E0,0E0,0E0,0E0,0E0,0E0,0E0,0E0,0E0,0E0,0E0],"parents":[2147483647,0,0,1,1,2,2,3,3,4,4,5,5,6,6,7,7,8,8,9,9,10,10,11,11,12,12,13,13,14,14,15,15,16,16,17,17,18,18,19,19,20,20,21,21,22,22,23,23,24,24,26,26,27,27,28,28,29,29,30,30,31,31,32,32,34,34,35,35,37,37,38,38,39,39,40,40,41,41,42,42,43,43,44,44,45,45,46,46,47,47,48,48,49,49,50,50,53,53,54,54,55,55,56,56,57,57,58,58,59,59,60,60],"right_children":[2,4,6,8,10,12,14,16,18,20,22,24,26,28,30,32,34,36,38,40,42,44,46,48,50,-1,52,54,56,58,60,62,64,-1,66,68,-1,70,72,74,76,78,80,82,84,86,88,90,92,94,96,-1,-1,98,100,102,104,106,108,110,112,-1,-1,-1,-1,-1,-1,-1,-1,-1,-1,-1,-1,-1,-1,-1,-1,-1,-1,-1,-1,-1,-1,-1,-1,-1,-1,-1,-1,-1,-1,-1,-1,-1,-1,-1,-1,-1,-1,-1,-1,-1,-1,-1,-1,-1,-1,-1,-1,-1,-1,-1,-1],"split_conditions":[3.7E1,1.5471431E2,6.9197507E0,2.6455336E1,2.996887E2,7.3E1,1E-1,7.4E1,1.2313894E1,5.4E1,3.4955242E1,2.4651457E1,6.2666668E1,3.0995087E2,3.2922723E2,1.3448917E1,8.4E1,1.1966954E1,3.4955242E1,1.5E1,1.70885E1,2.5741888E1,4.7E0,4.7553344E0,2.661323E1,3.6769786E0,8.1E1,3.710795E1,7.767833E0,3.2328345E2,1.7000002E0,3.609836E1,8.710028E1,4.173875E0,3.2E0,2.7248919E1,2.8464415E0,4E1,2.8333334E1,4.7E1,1.6E1,6E-1,2.4651457E1,8.940584E0,4.9E1,3.0086255E2,9.088667E0,3.8E1,1.4830076E1,3.031235E2,2.81169E1,2.1346328E0,-2.2701287E0,3.1262014E1,3.4E1,3.4E1,8.638666E0,6.993683E1,2E-1,4.6666668E1,6E1,-5.4019904E-1,6.2868994E-1,-6.43012E-1,-1.4185826E-1,-5.9914744E-1,1.268343E0,-1.1180035E0,1.1765289E-1,-1.3238866E0,-2.767989E0,1.7181962E0,-3.121502E-1,-6.3387084E-1,-3.09292E0,1.4473104E0,2.9211998E-1,-4.473137E-1,1.0814263E0,-2.4884257E0,1.3503084E0,-4.854785E-1,3.970856E-5,-6.3578873E-3,1.3245718E0,1.7041293E0,-6.068425E-1,-7.057055E-1,-3.7130837E0,1.9380983E0,-1.2393028E0,-2.2246497E-2,-2.4540176E0,3.0761456E0,1.8575093E-1,-2.4530606E0,-4.3917128E-1,5.428641E-1,-7.3638225E-1,-2.9875947E-2,3.7785938E0,-7.127401E-1,2.9586048E0,-2.871904E0,-1.8839097E-1,-6.3194144E-1,1.1346881E-1,9.131573E-1,-3.0927017E0,-1.7457457E0,1.0529423E0,2.5318186E0,-2.7363282E-1],"split_indices":[1,7,4,4,7,3,5,3,6,2,6,6,0,7,7,4,3,6,6,1,4,6,5,4,6,0,3,6,4,7,5,7,7,0,5,4,0,0,0,3,2,5,6,4,3,7,4,2,6,7,6,0,0,6,0,2,4,7,5,0,1,0,0,0,0,0,0,0,0,0,0,0,0,0,0,0,0,0,0,0,0,0,0,0,0,0,0,0,0,0,0,0,0,0,0,0,0,0,0,0,0,0,0,0,0,0,0,0,0,0,0,0,0],"split_type":[0,0,0,0,0,0,0,0,0,0,0,0,0,0,0,0,0,0,0,0,0,0,0,0,0,0,0,0,0,0,0,0,0,0,0,0,0,0,0,0,0,0,0,0,0,0,0,0,0,0,0,0,0,0,0,0,0,0,0,0,0,0,0,0,0,0,0,0,0,0,0,0,0,0,0,0,0,0,0,0,0,0,0,0,0,0,0,0,0,0,0,0,0,0,0,0,0,0,0,0,0,0,0,0,0,0,0,0,0,0,0,0,0],"sum_hessian":[3.931E3,1.925E3,2.006E3,5.88E2,1.337E3,2.04E2,1.802E3,5.13E2,7.5E1,4.3E2,9.07E2,1.94E2,1E1,7.4E2,1.062E3,5.05E2,8E0,6E0,6.9E1,4.05E2,2.5E1,8.03E2,1.04E2,5.8E1,1.36E2,6E0,4E0,5.95E2,1.45E2,1.022E3,4E1,1.17E2,3.88E2,3E0,5E0,4E0,2E0,6.6E1,3E0,1.6E1,3.89E2,1E1,1.5E1,4.61E2,3.42E2,9.5E1,9E0,2.5E1,3.3E1,2.4E1,1.12E2,1E0,3E0,5.9E2,5E0,1.3E1,1.32E2,1.012E3,1E1,1E1,3E1,4.1E1,7.6E1,1.46E2,2.42E2,3E0,2E0,2E0,2E0,5.5E1,1.1E1,2E0,1E0,1.4E1,2E0,1.7E1,3.72E2,5E0,5E0,1.2E1,3E0,2.39E2,2.22E2,2.99E2,4.3E1,3E0,9.2E1,3E0,6E0,9E0,1.6E1,6E0,2.7E1,8E0,1.6E1,9E0,1.03E2,5.56E2,3.4E1,1E0,4E0,4E0,9E0,1E1,1.22E2,9.9E1,9.13E2,1E0,9E0,7E0,3E0,2.3E1,7E0],"tree_param":{"num_deleted":"0","num_feature":"8","num_nodes":"113","size_leaf_vector":"1"}},{"base_weights":[6.4616376E-3,-6.890845E-2,1.5778922E0,-8.092687E-3,-1.9588062E0,4.990755E0,8.8939035E-1,-7.774303E-2,6.257158E0,-2.389246E0,8.160895E0,-3.0401468E0,7.567123E0,-1.0885349E1,1.2016171E0,1.6460316E-2,-1.9094493E0,4.1900563E0,7.144068E0,1.9762089E0,-3.0775933E0,3.0679367E0,-1.5201188E-2,-9.3681965E0,2.6303222E0,9.328764E0,2.207834E0,-2.2262993E-1,-4.20572E0,3.508196E-1,3.65522E0,-1.20211616E-1,1.012835E0,-9.7753924E-1,-4.9540915E0,5.690878E0,1.253076E-1,5.5221725E0,-6.929345E0,-3.8219304E0,-3.32523E-1,-7.3540425E-1,-3.2570093E0,-1.260109E0,1.6931939E0,2.2986908E0,1.1315041E1,1.0624534E1,-3.2837524E0,1.3385067E0,-2.3605523E0,9.855191E0,1.9373171E0,-1.5218976E-2,-5.0929457E-1,-1.3792747E0,3.7515852E-1,-6.812756E-1,4.807061E-1,-7.706359E-1,-2.4511428E0,2.4116354E-1,2.555489E0,-1.6224577E0,1.6913769E0,-7.343774E-1,2.535259E0,-2.524054E0,-1.4890109E-1,-1.7131503E0,-3.3923733E-1,1.1091598E0,-1.0220193E0,-1.0938721E-1,-4.5766184E-1,8.9634997E-1,-6.868172E-2,3.7228725E0,-2.72905E-1,9.731581E-1,3.807882E0,-1.2501023E0,3.739014E-2,1.177652E0,-9.328629E-2,-1.7046201E0,4.0193012E-1,4.5468906E-1,3.714732E0,-4.14947E-1,1.992388E0],"categories":[],"categories_nodes":[],"categories_segments":[],"categories_sizes":[],"default_left":[0,0,0,0,0,0,0,0,0,0,0,0,0,0,0,0,0,0,0,0,0,0,0,0,0,0,0,0,0,0,0,0,0,0,0,0,0,0,0,0,0,0,0,0,0,0,0,0,0,0,0,0,0,0,0,0,0,0,0,0,0,0,0,0,0,0,0,0,0,0,0,0,0,0,0,0,0,0,0,0,0,0,0,0,0,0,0,0,0,0,0],"id":11,"left_children":[1,3,5,7,9,11,13,15,17,19,21,23,25,27,29,31,33,35,-1,37,39,-1,-1,41,43,45,47,-1,-1,49,51,53,55,57,59,61,63,65,67,69,71,-1,-1,73,-1,75,77,79,81,83,85,87,89,-1,-1,-1,-1,-1,-1,-1,-1,-1,-1,-1,-1,-1,-1,-1,-1,-1,-1,-1,-1,-1,-1,-1,-1,-1,-1,-1,-1,-1,-1,-1,-1,-1,-1,-1,-1,-1,-1],"loss_changes":[4.6581033E2,4.3133737E2,4.185185E2,1.5875891E3,5.2914136E2,6.4372186E2,5.682148E2,6.2087665E2,1.3518545E3,3.4564124E2,8.532556E1,3.1170547E2,1.9654993E2,1.1674072E2,3.076705E2,4.6625372E2,4.945277E2,2.2500409E2,0E0,5.4352527E2,1.9896844E2,0E0,0E0,1.4569397E1,6.573416E1,2.1137268E2,3.5843558E2,0E0,0E0,3.004162E2,3.8564343E2,3.2992853E2,5.565093E2,4.5744092E2,2.9356616E2,3.6622723E2,3.6603558E2,3.0079044E2,4.3562378E1,3.8488794E2,2.8513583E2,0E0,0E0,1.5681887E-1,0E0,9.393515E0,1.8523364E2,4.6245728E0,1.557172E1,3.5112744E2,3.763326E2,1.4984198E2,4.9338824E2,0E0,0E0,0E0,0E0,0E0,0E0,0E0,0E0,0E0,0E0,0E0,0E0,0E0,0E0,0E0,0E0,0E0,0E0,0E0,0E0,0E0,0E0,0E0,0E0,0E0,0E0,0E0,0E0,0E0,0E0,0E0,0E0,0E0,0E0,0E0,0E0,0E0,0E0],"parents":[2147483647,0,0,1,1,2,2,3,3,4,4,5,5,6,6,7,7,8,8,9,9,10,10,11,11,12,12,13,13,14,14,15,15,16,16,17,17,19,19,20,20,23,23,24,24,25,25,26,26,29,29,30,30,31,31,32,32,33,33,34,34,35,35,36,36,37,37,38,38,39,39,40,40,43,43,45,45,46,46,47,47,48,48,49,49,50,50,51,51,52,52],"right_children":[2,4,6,8,10,12,14,16,18,20,22,24,26,28,30,32,34,36,-1,38,40,-1,-1,42,44,46,48,-1,-1,50,52,54,56,58,60,62,64,66,68,70,72,-1,-1,74,-1,76,78,80,82,84,86,88,90,-1,-1,-1,-1,-1,-1,-1,-1,-1,-1,-1,-1,-1,-1,-1,-1,-1,-1,-1,-1,-1,-1,-1,-1,-1,-1,-1,-1,-1,-1,-1,-1,-1,-1,-1,-1,-1,-1],"split_conditions":[7.1E1,7E1,5.6666668E1,6.3666668E1,3.7100002E1,1.154061E2,5.1E1,6E1,3.15283E2,5.1E1,8.2E1,1E-1,2.1000001E0,5.8E1,9.3E1,4.8333332E1,2.430725E1,2.7730334E2,7.144068E0,2.744749E1,2.968636E1,3.0679367E0,-1.5201188E-2,4.9E1,1.3979872E1,4.7553344E0,1.3822455E2,-2.2262993E-1,-4.20572E0,6.8E1,7.4E1,3.5599995E1,3.5E1,5.8E1,5.8E1,6E1,6.8E1,1.4408997E1,3.0680957E2,7.3E1,4.4E1,-7.3540425E-1,-3.2570093E0,5.1666668E1,1.6931939E0,4.8666668E1,5.5E1,4.9E1,5.0666668E1,1E-1,7.8E1,1E-1,2.0342665E1,-1.5218976E-2,-5.0929457E-1,-1.3792747E0,3.7515852E-1,-6.812756E-1,4.807061E-1,-7.706359E-1,-2.4511428E0,2.4116354E-1,2.555489E0,-1.6224577E0,1.6913769E0,-7.343774E-1,2.535259E0,-2.524054E0,-1.4890109E-1,-1.7131503E0,-3.3923733E-1,1.1091598E0,-1.0220193E0,-1.0938721E-1,-4.5766184E-1,8.9634997E-1,-6.868172E-2,3.7228725E0,-2.72905E-1,9.731581E-1,3.807882E0,-1.2501023E0,3.739014E-2,1.177652E0,-9.328629E-2,-1.7046201E0,4.0193012E-1,4.5468906E-1,3.714732E0,-4.14947E-1,1.992388E0],"split_indices":[1,2,0,0,5,7,2,2,7,3,2,5,5,0,1,0,4,7,0,6,6,0,0,0,6,4,7,0,0,3,0,5,3,1,1,1,2,6,7,3,1,0,0,0,0,0,2,0,0,5,2,5,4,0,0,0,0,0,0,0,0,0,0,0,0,0,0,0,0,0,0,0,0,0,0,0,0,0,0,0,0,0,0,0,0,0,0,0,0,0,0],"split_type":[0,0,0,0,0,0,0,0,0,0,0,0,0,0,0,0,0,0,0,0,0,0,0,0,0,0,0,0,0,0,0,0,0,0,0,0,0,0,0,0,0,0,0,0,0,0,0,0,0,0,0,0,0,0,0,0,0,0,0,0,0,0,0,0,0,0,0,0,0,0,0,0,0,0,0,0,0,0,0,0,0,0,0,0,0,0,0,0,0,0,0],"sum_hessian":[3.931E3,3.752E3,1.79E2,3.636E3,1.16E2,2.9E1,1.5E2,3.597E3,3.9E1,1.12E2,4E0,7E0,2.2E1,3E0,1.47E2,3.422E3,1.75E2,3.6E1,3E0,1.5E1,9.7E1,3E0,1E0,3E0,4E0,1.6E1,6E0,1E0,2E0,1.1E2,3.7E1,3.01E3,4.12E2,1.35E2,4E1,2.6E1,1E1,1.1E1,4E0,7.6E1,2.1E1,1E0,2E0,2E0,2E0,4E0,1.2E1,2E0,4E0,8.1E1,2.9E1,7E0,3E1,2.884E3,1.26E2,1.6E1,3.96E2,9E1,4.5E1,2.4E1,1.6E1,1E1,1.6E1,5E0,5E0,3E0,8E0,3E0,1E0,4.4E1,3.2E1,9E0,1.2E1,1E0,1E0,3E0,1E0,1.1E1,1E0,1E0,1E0,3E0,1E0,3.1E1,5E1,1.5E1,1.4E1,2E0,5E0,1.8E1,1.2E1],"tree_param":{"num_deleted":"0","num_feature":"8","num_nodes":"91","size_leaf_vector":"1"}},{"base_weights":[7.411293E-3,-4.88753E0,2.8659146E-2,-2.5162425E0,-2.644655E0,4.4205554E-2,-5.494334E0,2.4440053E0,-3.7526927E0,-5.8667946E-1,1.675505E-1,4.8101693E-1,-6.3644457E0,9.826887E-1,1.1711369E-1,-1.2671248E0,-1.2456442E0,-6.6871583E-1,3.1234252E0,8.8864577E-1,3.264433E-2,-4.664065E-1,-2.3341966E0,4.2894748E-1,-9.894874E-1,-5.918349E-1,-4.248422E0,1.0310368E1,-7.823887E-1,-1.0040045E0,1.5042703E0,-6.016667E-2,1.2245653E0,-1.0914592E0,8.815762E-1,-8.1166065E-1,-1.4013688E-1,-3.6665955E-1,-1.6372834E0,7.914162E-1,4.363768E0,6.504781E-1,-2.516997E0,1.3222915E-1,-1.4442823E0,7.365849E-1,2.0432558E-2,-3.235017E-1,2.8961314E-2,1.1123705E0,2.0711263E-1],"categories":[],"categories_nodes":[],"categories_segments":[],"categories_sizes":[],"default_left":[0,0,0,0,0,0,0,0,0,0,0,0,0,0,0,0,0,0,0,0,0,0,0,0,0,0,0,0,0,0,0,0,0,0,0,0,0,0,0,0,0,0,0,0,0,0,0,0,0,0,0],"id":12,"left_children":[1,3,5,7,-1,9,11,13,15,17,19,-1,21,-1,-1,-1,23,25,27,29,31,33,-1,-1,-1,35,37,39,41,43,45,47,49,-1,-1,-1,-1,-1,-1,-1,-1,-1,-1,-1,-1,-1,-1,-1,-1,-1,-1],"loss_changes":[4.0909558E2,1.361626E2,3.3648126E2,8.2768776E1,0E0,3.0404947E2,7.813861E1,3.8447971E0,6.54834E0,1.9657704E2,3.1788272E2,0E0,7.98996E1,0E0,0E0,0E0,2.119136E1,1.6976785E2,4.0105878E2,6.0156866E2,3.0473044E2,4.309094E1,0E0,0E0,0E0,1.6058888E2,4.0900284E1,1.2410852E2,2.4266528E2,7.012515E2,5.3113214E2,4.0791913E2,2.6142822E2,0E0,0E0,0E0,0E0,0E0,0E0,0E0,0E0,0E0,0E0,0E0,0E0,0E0,0E0,0E0,0E0,0E0,0E0],"parents":[2147483647,0,0,1,1,2,2,3,3,5,5,6,6,7,7,8,8,9,9,10,10,12,12,16,16,17,17,18,18,19,19,20,20,21,21,25,25,26,26,27,27,28,28,29,29,30,30,31,31,32,32],"right_children":[2,4,6,8,-1,10,12,14,16,18,20,-1,22,-1,-1,-1,24,26,28,30,32,34,-1,-1,-1,36,38,40,42,44,46,48,50,-1,-1,-1,-1,-1,-1,-1,-1,-1,-1,-1,-1,-1,-1,-1,-1,-1,-1],"split_conditions":[1.0324169E0,3.2E1,1.08899994E2,2.9850122E2,-2.644655E0,2.4E1,9.178235E0,2.7666666E1,2.7E1,4.7E1,2.7E1,4.8101693E-1,2.0436417E1,9.826887E-1,1.1711369E-1,-1.2671248E0,2.9333334E1,3.34E1,2E1,2E1,7E1,2.4E1,-2.3341966E0,4.2894748E-1,-9.894874E-1,1.1269782E1,1E1,2E1,1.5471431E2,1.9384499E1,3.033687E2,2.7E1,5.6666668E1,-1.0914592E0,8.815762E-1,-8.1166065E-1,-1.4013688E-1,-3.6665955E-1,-1.6372834E0,7.914162E-1,4.363768E0,6.504781E-1,-2.516997E0,1.3222915E-1,-1.4442823E0,7.365849E-1,2.0432558E-2,-3.235017E-1,2.8961314E-2,1.1123705E0,2.0711263E-1],"split_indices":[4,1,5,7,0,1,6,0,0,5,2,0,4,0,0,0,0,5,2,3,1,0,0,0,0,6,2,0,7,4,7,3,0,0,0,0,0,0,0,0,0,0,0,0,0,0,0,0,0,0,0],"split_type":[0,0,0,0,0,0,0,0,0,0,0,0,0,0,0,0,0,0,0,0,0,0,0,0,0,0,0,0,0,0,0,0,0,0,0,0,0,0,0,0,0,0,0,0,0,0,0,0,0,0,0],"sum_hessian":[3.931E3,1.6E1,3.915E3,1.1E1,5E0,3.905E3,1E1,2E0,9E0,6.38E2,3.267E3,1E0,9E0,1E0,1E0,7E0,2E0,6.25E2,1.3E1,5.14E2,2.753E3,2E0,7E0,1E0,1E0,6.13E2,1.2E1,4E0,9E0,1.26E2,3.88E2,2.555E3,1.98E2,1E0,1E0,3.3E1,5.8E2,4E0,8E0,2E0,2E0,7E0,2E0,9.2E1,3.4E1,2.33E2,1.55E2,3.4E2,2.215E3,3.4E1,1.64E2],"tree_param":{"num_deleted":"0","num_feature":"8","num_nodes":"51","size_leaf_vector":"1"}},{"base_weights":[4.0097535E-3,4.8720104E-1,-1.500878E-1,8.454552E-1,-6.861376E-1,-2.7841535E-1,9.035327E-1,2.6467204E-1,2.3388205E0,1.7164282E0,-1.843099E0,-1.722769E-1,-1.8816701E0,-8.0531335E-1,1.5743923E0,1.0629878E0,-5.9440225E-1,2.4753594E0,-3.8067908E0,-1.8115471E-1,6.423831E0,-2.9331706E0,2.1436164E0,-1.883898E-1,7.889621E0,-4.275552E0,-1.0556644E0,-3.6963165E0,-2.2259804E-3,8.895319E0,7.6891506E-1,1.9500637E0,-7.3259324E-1,-2.6261034E0,3.5480574E-1,1.8405962E0,6.0744753E0,5.7077426E-1,-2.8604934E0,-1.8076347E0,8.466978E0,-2.3560379E0,-1.1830714E1,6.6685286E0,-1.1310028E0,-1.2535897E0,-7.111017E-2,2.7940178E0,3.2918015E-1,-1.5869024E0,-1.0151239E1,4.301239E0,-1.6680223E0,-3.0031502E-1,-5.9352913E0,1.8572068E0,-1.9648988E0,5.3594136E0,5.4113374E0,5.21898E-1,1.08416395E1,1.139605E-1,9.4978356E-1,-4.4432532E-2,-2.033433E0,-1.2782009E0,2.9913785E-3,1.505655E0,-4.478023E-2,2.897441E0,4.5117283E-1,1.1725862E0,3.004597E0,-4.9287777E-2,1.5328965E0,2.1651478E0,-1.760437E0,4.464148E0,1.0847778E0,-1.1039337E0,2.8936175E-1,-4.0835123E0,-1.7171346E-1,5.724858E-2,3.450885E0,1.0525646E0,-1.0109979E0,-6.248117E-2,-6.7189586E-1,1.6725523E0,-3.042226E-2,-1.045918E0,1.977638E0,-1.5441686E-1,-3.2734168E0,6.9746673E-1,4.202616E0,-2.5255268E-2,-1.0890894E0,5.228093E-1,-1.4901719E0,-3.514595E-1,-2.0312672E0,-7.329944E-2,1.3402791E0,2.0070748E0,-8.8633966E-1,6.501516E-1,4.02382E0,5.655949E-1,-5.271472E-1,5.1523485E0,2.6847154E-1],"categories":[],"categories_nodes":[],"categories_segments":[],"categories_sizes":[],"default_left":[0,0,0,0,0,0,0,0,0,0,0,0,0,0,0,0,0,0,0,0,0,0,0,0,0,0,0,0,0,0,0,0,0,0,0,0,0,0,0,0,0,0,0,0,0,0,0,0,0,0,0,0,0,0,0,0,0,0,0,0,0,0,0,0,0,0,0,0,0,0,0,0,0,0,0,0,0,0,0,0,0,0,0,0,0,0,0,0,0,0,0,0,0,0,0,0,0,0,0,0,0,0,0,0,0,0,0,0,0,0,0,0,0],"id":13,"left_children":[1,3,5,7,9,11,13,15,17,19,21,23,25,27,29,31,33,35,-1,37,39,41,43,45,47,49,51,53,55,57,59,61,63,65,67,69,71,73,-1,75,77,79,81,83,85,87,89,-1,-1,91,93,95,97,99,101,103,105,-1,107,109,111,-1,-1,-1,-1,-1,-1,-1,-1,-1,-1,-1,-1,-1,-1,-1,-1,-1,-1,-1,-1,-1,-1,-1,-1,-1,-1,-1,-1,-1,-1,-1,-1,-1,-1,-1,-1,-1,-1,-1,-1,-1,-1,-1,-1,-1,-1,-1,-1,-1,-1,-1,-1],"loss_changes":[2.9284433E2,4.0033633E2,4.0344342E2,6.3165826E2,6.2303125E2,4.5214984E2,3.7270023E2,3.6136926E2,4.5000354E2,6.532499E2,6.6250415E2,3.2558804E2,3.2175092E2,2.1359077E2,1.367124E3,4.3626758E2,4.9077252E2,4.5259033E2,0E0,3.7821307E2,3.6848523E2,5.8319885E2,4.965152E2,3.1110214E2,3.813452E1,6.473929E2,4.1393698E2,1.5028876E2,2.700597E2,6.220597E2,5.1933826E2,3.481756E2,3.2054572E2,3.4905835E2,4.0982654E2,4.4345386E2,2.1691309E2,1.6765851E2,0E0,2.2557652E2,4.7510217E2,5.0025012E2,1.3256604E2,4.362279E2,2.1958194E2,2.5412906E2,3.8461194E2,0E0,0E0,4.8906247E2,8.9611084E1,2.1684123E2,3.477822E2,9.446767E1,3.983481E1,2.0955333E2,3.2810052E2,0E0,4.3817365E2,6.46525E2,2.9958667E2,0E0,0E0,0E0,0E0,0E0,0E0,0E0,0E0,0E0,0E0,0E0,0E0,0E0,0E0,0E0,0E0,0E0,0E0,0E0,0E0,0E0,0E0,0E0,0E0,0E0,0E0,0E0,0E0,0E0,0E0,0E0,0E0,0E0,0E0,0E0,0E0,0E0,0E0,0E0,0E0,0E0,0E0,0E0,0E0,0E0,0E0,0E0,0E0,0E0,0E0,0E0,0E0],"parents":[2147483647,0,0,1,1,2,2,3,3,4,4,5,5,6,6,7,7,8,8,9,9,10,10,11,11,12,12,13,13,14,14,15,15,16,16,17,17,19,19,20,20,21,21,22,22,23,23,24,24,25,25,26,26,27,27,28,28,29,29,30,30,31,31,32,32,33,33,34,34,35,35,36,36,37,37,39,39,40,40,41,41,42,42,43,43,44,44,45,45,46,46,49,49,50,50,51,51,52,52,53,53,54,54,55,55,56,56,58,58,59,59,60,60],"right_children":[2,4,6,8,10,12,14,16,18,20,22,24,26,28,30,32,34,36,-1,38,40,42,44,46,48,50,52,54,56,58,60,62,64,66,68,70,72,74,-1,76,78,80,82,84,86,88,90,-1,-1,92,94,96,98,100,102,104,106,-1,108,110,112,-1,-1,-1,-1,-1,-1,-1,-1,-1,-1,-1,-1,-1,-1,-1,-1,-1,-1,-1,-1,-1,-1,-1,-1,-1,-1,-1,-1,-1,-1,-1,-1,-1,-1,-1,-1,-1,-1,-1,-1,-1,-1,-1,-1,-1,-1,-1,-1,-1,-1,-1,-1],"split_conditions":[1.5807239E1,2.5078249E1,6E1,1.4408997E1,2E-1,6E1,3.6E1,3.9E1,4.82E1,5.5E1,2.2027197E2,9.3E1,1.9586117E1,4E1,5.0666668E1,1.2904882E1,3.7E1,5.9E1,-3.8067908E0,5.5E1,2.6042671E1,6.4333336E1,4.5E1,8.710028E1,1.07E2,1.8775303E1,2.0674158E1,4.0333332E1,1.5486583E1,3.8E1,3.2328345E2,3E1,6.2E1,4.9E1,9.586418E0,5.571834E0,2.1623915E1,4.4333332E1,-2.8604934E0,5.6E1,5.7666668E1,4.6E1,1.05E2,3.3333332E1,2.3175197E2,3.1E1,8.8372795E1,2.7940178E0,3.2918015E-1,5.9000006E0,2.8E1,2.061766E1,1.7476002E1,2E-1,6.2E1,7.2E1,4.6333332E1,5.3594136E0,4.5E1,2.8899887E2,1.618225E1,1.139605E-1,9.4978356E-1,-4.4432532E-2,-2.033433E0,-1.2782009E0,2.9913785E-3,1.505655E0,-4.478023E-2,2.897441E0,4.5117283E-1,1.1725862E0,3.004597E0,-4.9287777E-2,1.5328965E0,2.1651478E0,-1.760437E0,4.464148E0,1.0847778E0,-1.1039337E0,2.8936175E-1,-4.0835123E0,-1.7171346E-1,5.724858E-2,3.450885E0,1.0525646E0,-1.0109979E0,-6.248117E-2,-6.7189586E-1,1.6725523E0,-3.042226E-2,-1.045918E0,1.977638E0,-1.5441686E-1,-3.2734168E0,6.9746673E-1,4.202616E0,-2.5255268E-2,-1.0890894E0,5.228093E-1,-1.4901719E0,-3.514595E-1,-2.0312672E0,-7.329944E-2,1.3402791E0,2.0070748E0,-8.8633966E-1,6.501516E-1,4.02382E0,5.655949E-1,-5.271472E-1,5.1523485E0,2.6847154E-1],"split_indices":[6,4,3,6,5,2,1,3,5,1,7,1,6,2,0,6,1,1,0,0,4,0,2,7,1,6,6,0,4,1,7,0,1,3,4,4,4,0,0,1,0,3,3,0,7,3,7,0,0,5,1,6,4,5,3,3,0,0,1,7,4,0,0,0,0,0,0,0,0,0,0,0,0,0,0,0,0,0,0,0,0,0,0,0,0,0,0,0,0,0,0,0,0,0,0,0,0,0,0,0,0,0,0,0,0,0,0,0,0,0,0,0,0],"split_type":[0,0,0,0,0,0,0,0,0,0,0,0,0,0,0,0,0,0,0,0,0,0,0,0,0,0,0,0,0,0,0,0,0,0,0,0,0,0,0,0,0,0,0,0,0,0,0,0,0,0,0,0,0,0,0,0,0,0,0,0,0,0,0,0,0,0,0,0,0,0,0,0,0,0,0,0,0,0,0,0,0,0,0,0,0,0,0,0,0,0,0,0,0,0,0,0,0,0,0,0,0,0,0,0,0,0,0,0,0,0,0,0,0],"sum_hessian":[3.931E3,9.5E2,2.981E3,7.28E2,2.22E2,2.658E3,3.23E2,5.25E2,2.03E2,7.2E1,1.5E2,2.494E3,1.64E2,9.1E1,2.32E2,2.72E2,2.53E2,2.02E2,1E0,5.2E1,2E1,1.18E2,3.2E1,2.49E3,4E0,4.1E1,1.23E2,1.9E1,7.2E1,2.2E1,2.1E2,1.82E2,9E1,8E1,1.73E2,1.73E2,2.9E1,4.9E1,3E0,4E0,1.6E1,1.12E2,6E0,1.3E1,1.9E1,2.46E2,2.244E3,3E0,1E0,2.9E1,1.2E1,1.2E1,1.11E2,8E0,1.1E1,3.7E1,3.5E1,5E0,1.7E1,2.06E2,4E0,8E1,1.02E2,8.3E1,7E0,4.9E1,3.1E1,1.6E1,1.57E2,6E0,1.67E2,2E1,9E0,4.3E1,6E0,1E0,3E0,6E0,1E1,8E1,3.2E1,5E0,1E0,6E0,7E0,6E0,1.3E1,1.2E2,1.26E2,1.1E1,2.233E3,2.4E1,5E0,1E0,1.1E1,1.1E1,1E0,6.2E1,4.9E1,6E0,2E0,2E0,9E0,2.1E1,1.6E1,3E0,3.2E1,1.3E1,4E0,1.29E2,7.7E1,2E0,2E0],"tree_param":{"num_deleted":"0","num_feature":"8","num_nodes":"113","size_leaf_vector":"1"}},{"base_weights":[9.367912E-3,-1.1549834E0,6.7163475E-2,-1.4139323E0,4.0947814E0,-2.958734E-1,2.1872382E-1,-8.101142E-1,-2.987043E0,1.887874E0,-2.2611094E-1,2.501793E0,-4.1161463E-1,3.3122432E-1,-1.1213734E0,-1.8593104E0,9.622164E-1,-3.3863478E0,4.2644143E0,-6.6177267E-1,3.507374E-1,-7.0350266E-1,5.202185E0,8.7529875E-2,-1.0136756E0,2.7902415E-1,3.9101496E0,-1.8025333E0,4.9327183E0,-7.4020076E-1,-2.8571026E0,4.7155795E0,-3.8253862E-1,-5.572771E0,-2.0781045E0,3.062004E-1,1.6127862E0,1.3460159E0,-4.034786E0,6.148327E0,-3.4702466E0,2.8000504E-1,-3.1172094E0,-4.1701126E0,-9.0371644E-1,7.9769784E-1,-6.3492924E-2,1.5525521E0,1.1672972E1,1.8785632E0,-2.64383E0,1.9342877E0,1.0653253E1,-9.608108E-1,2.5962254E-1,-1.24816366E-1,-1.206358E0,1.8168131E0,-5.313948E-1,5.6612056E-1,-3.5383514E-1,-5.6195194E-1,-2.2261336E0,2.2748332E0,-7.95868E-1,-1.1294451E0,7.6187944E-1,2.063331E0,-1.375494E0,-1.8273182E-1,-1.3788792E0,4.5208573E-2,1.4620163E0,-2.1549723E0,-2.273049E-1,-6.3351184E-1,-1.0345324E-1,4.6324614E-1,-5.685614E-3,4.1990742E-2,-3.533128E-1,1.3606725E0,-8.408329E-1,-1.5643456E0,4.449118E0,-2.4668417E0,8.2198304E-1,-9.244987E-1,1.381978E0,-1.1332953E-1,1.6395984E0,-1.8871422E-1,3.7915432E0],"categories":[],"categories_nodes":[],"categories_segments":[],"categories_sizes":[],"default_left":[0,0,0,0,0,0,0,0,0,0,0,0,0,0,0,0,0,0,0,0,0,0,0,0,0,0,0,0,0,0,0,0,0,0,0,0,0,0,0,0,0,0,0,0,0,0,0,0,0,0,0,0,0,0,0,0,0,0,0,0,0,0,0,0,0,0,0,0,0,0,0,0,0,0,0,0,0,0,0,0,0,0,0,0,0,0,0,0,0,0,0,0,0],"id":14,"left_children":[1,3,5,7,9,11,13,15,17,-1,19,21,23,25,27,29,31,33,35,-1,-1,37,39,41,43,45,47,49,51,53,55,57,59,61,63,-1,-1,65,-1,67,69,71,73,-1,75,77,79,81,83,85,87,89,91,-1,-1,-1,-1,-1,-1,-1,-1,-1,-1,-1,-1,-1,-1,-1,-1,-1,-1,-1,-1,-1,-1,-1,-1,-1,-1,-1,-1,-1,-1,-1,-1,-1,-1,-1,-1,-1,-1,-1,-1],"loss_changes":[2.6467892E2,2.5864197E2,2.0623212E2,1.6665747E2,8.69039E1,3.5851086E2,3.989851E2,2.4352698E2,1.5632242E2,0E0,1.3628119E1,3.845042E2,3.189356E2,4.5475104E2,8.542711E2,8.9449585E1,2.4912424E2,1.2285675E2,5.329586E0,0E0,0E0,5.6668005E2,2.1826447E2,3.5925262E2,6.6901996E2,4.2748755E2,6.2243353E2,5.778923E2,3.3959866E2,1.6092426E2,1.2051578E2,1.23768036E2,6.9146736E1,1.02306335E2,1.9225821E2,0E0,0E0,1.25464905E2,0E0,2.0377966E2,6.865467E0,3.253548E2,3.1115634E2,0E0,3.219753E2,5.834099E2,3.2888092E2,3.7648947E2,5.038993E2,3.2706912E2,4.9354053E2,1.24523865E2,1.6473553E2,0E0,0E0,0E0,0E0,0E0,0E0,0E0,0E0,0E0,0E0,0E0,0E0,0E0,0E0,0E0,0E0,0E0,0E0,0E0,0E0,0E0,0E0,0E0,0E0,0E0,0E0,0E0,0E0,0E0,0E0,0E0,0E0,0E0,0E0,0E0,0E0,0E0,0E0,0E0,0E0],"parents":[2147483647,0,0,1,1,2,2,3,3,4,4,5,5,6,6,7,7,8,8,10,10,11,11,12,12,13,13,14,14,15,15,16,16,17,17,18,18,21,21,22,22,23,23,24,24,25,25,26,26,27,27,28,28,29,29,30,30,31,31,32,32,33,33,34,34,37,37,39,39,40,40,41,41,42,42,44,44,45,45,46,46,47,47,48,48,49,49,50,50,51,51,52,52],"right_children":[2,4,6,8,10,12,14,16,18,-1,20,22,24,26,28,30,32,34,36,-1,-1,38,40,42,44,46,48,50,52,54,56,58,60,62,64,-1,-1,66,-1,68,70,72,74,-1,76,78,80,82,84,86,88,90,92,-1,-1,-1,-1,-1,-1,-1,-1,-1,-1,-1,-1,-1,-1,-1,-1,-1,-1,-1,-1,-1,-1,-1,-1,-1,-1,-1,-1,-1,-1,-1,-1,-1,-1,-1,-1,-1,-1,-1,-1],"split_conditions":[3.6447504E0,2.4E0,1.2878581E2,3.6E1,3.168872E2,9.504272E0,1.9300001E1,3.339473E1,4.3548096E1,1.887874E0,2.6333334E1,3.4E1,2.0342665E1,1.66E1,2.5769747E1,2.6E1,3.4955242E1,4.3E1,3.6666668E1,-6.6177267E-1,3.507374E-1,3.2E1,2.4201004E1,7.2E1,9.983106E0,2.9669022E2,3.1097263E2,1.6771164E2,3.987071E1,2.1E1,3.058694E2,2E-1,2.5E1,3.9E1,4.4E1,3.062004E-1,1.6127862E0,1.9E1,-4.034786E0,7.6333336E1,4.3333332E1,6.4E1,7.8E1,-4.1701126E0,9.38629E1,2.4046999E1,1.7946833E1,4.5E1,2E1,2.03E1,3.4165268E2,3.8E1,1.352841E2,-9.608108E-1,2.5962254E-1,-1.24816366E-1,-1.206358E0,1.8168131E0,-5.313948E-1,5.6612056E-1,-3.5383514E-1,-5.6195194E-1,-2.2261336E0,2.2748332E0,-7.95868E-1,-1.1294451E0,7.6187944E-1,2.063331E0,-1.375494E0,-1.8273182E-1,-1.3788792E0,4.5208573E-2,1.4620163E0,-2.1549723E0,-2.273049E-1,-6.3351184E-1,-1.0345324E-1,4.6324614E-1,-5.685614E-3,4.1990742E-2,-3.533128E-1,1.3606725E0,-8.408329E-1,-1.5643456E0,4.449118E0,-2.4668417E0,8.2198304E-1,-9.244987E-1,1.381978E0,-1.1332953E-1,1.6395984E0,-1.8871422E-1,3.7915432E0],"split_indices":[4,5,7,1,7,6,5,6,6,0,0,2,4,5,4,3,6,1,0,0,0,2,4,2,6,7,7,7,6,3,7,5,2,1,1,0,0,1,0,0,0,0,2,0,7,4,4,2,2,5,7,2,7,0,0,0,0,0,0,0,0,0,0,0,0,0,0,0,0,0,0,0,0,0,0,0,0,0,0,0,0,0,0,0,0,0,0,0,0,0,0,0,0],"split_type":[0,0,0,0,0,0,0,0,0,0,0,0,0,0,0,0,0,0,0,0,0,0,0,0,0,0,0,0,0,0,0,0,0,0,0,0,0,0,0,0,0,0,0,0,0,0,0,0,0,0,0,0,0,0,0,0,0,0,0,0,0,0,0,0,0,0,0,0,0,0,0,0,0,0,0,0,0,0,0,0,0,0,0,0,0,0,0,0,0,0,0,0,0],"sum_hessian":[3.931E3,1.85E2,3.746E3,1.77E2,8E0,1.103E3,2.643E3,1.29E2,4.8E1,5E0,3E0,4.3E1,1.06E3,2.439E3,2.04E2,8.1E1,4.8E1,4.6E1,2E0,1E0,2E0,2E1,2.3E1,5.8E2,4.8E2,2.405E3,3.4E1,1.84E2,2E1,3.9E1,4.2E1,1.2E1,3.6E1,1.6E1,3E1,1E0,1E0,1.8E1,2E0,2.1E1,2E0,5.48E2,3.2E1,3E0,4.77E2,9.56E2,1.449E3,2.7E1,7E0,3.4E1,1.5E2,1.4E1,6E0,1.5E1,2.4E1,1.4E1,2.8E1,1E1,2E0,9E0,2.7E1,6E0,1E1,1E0,2.9E1,3E0,1.5E1,2E1,1E0,1E0,1E0,5.34E2,1.4E1,1.1E1,2.1E1,1.5E2,3.27E2,4.99E2,4.57E2,1.226E3,2.23E2,1.6E1,1.1E1,1E0,6E0,2E0,3.2E1,1.42E2,8E0,9E0,5E0,1E0,5E0],"tree_param":{"num_deleted":"0","num_feature":"8","num_nodes":"93","size_leaf_vector":"1"}},{"base_weights":[6.0707014E-3,-3.5966204E-3,4.7483416E0,4.316021E-3,-7.7610426E0,9.439926E-1,1.7577378E0,-3.1268733E0,1.7942725E-2,-2.739802E0,-5.469229E-1,-2.7295304E-2,4.52092E-1,-1.6265659E0,-1.6819028E0,1.5076739E-1,-3.1300732E-1,2.333577E0,-2.6519523E0,-4.1511714E-2,1.4113762E0,-5.84695E-1,8.190062E-1,8.9292413E-1,1.5718547E-1,-2.53101E-1,-9.9192184E-1,4.3808455E-3,-7.5012904E-1,6.9284874E-1,7.13177E-3,-3.0442944E-2,-5.4367214E-1,9.1565174E-1,-7.282648E-2],"categories":[],"categories_nodes":[],"categories_segments":[],"categories_sizes":[],"default_left":[0,0,0,0,0,0,0,0,0,0,0,0,0,0,0,0,0,0,0,0,0,0,0,0,0,0,0,0,0,0,0,0,0,0,0],"id":15,"left_children":[1,3,5,7,9,11,-1,13,15,-1,-1,-1,-1,17,-1,19,21,23,25,27,29,31,33,-1,-1,-1,-1,-1,-1,-1,-1,-1,-1,-1,-1],"loss_changes":[1.8027983E2,2.4095743E2,2.8275528E1,1.6739917E2,1.5929184E1,1.8851268E0,0E0,5.4120316E1,1.7174843E2,0E0,0E0,0E0,0E0,5.491665E1,0E0,6.758385E2,3.4463184E2,1.9303856E0,9.044853E0,3.3395062E2,4.5980542E2,5.35451E2,5.152673E2,0E0,0E0,0E0,0E0,0E0,0E0,0E0,0E0,0E0,0E0,0E0,0E0],"parents":[2147483647,0,0,1,1,2,2,3,3,4,4,5,5,7,7,8,8,13,13,15,15,16,16,17,17,18,18,19,19,20,20,21,21,22,22],"right_children":[2,4,6,8,10,12,-1,14,16,-1,-1,-1,-1,18,-1,20,22,24,26,28,30,32,34,-1,-1,-1,-1,-1,-1,-1,-1,-1,-1,-1,-1],"split_conditions":[1.22E2,1.25E2,8.4666664E1,1.0324169E0,1.10333336E2,8.4333336E1,1.7577378E0,3.2E1,4.7E1,-2.739802E0,-5.469229E-1,-2.7295304E-2,4.52092E-1,2.9850122E2,-1.6819028E0,4.3E1,6.3666668E1,2.7666666E1,2.9853966E1,4.2333332E1,2.23229E1,2.2732248E1,7E1,8.9292413E-1,1.5718547E-1,-2.53101E-1,-9.9192184E-1,4.3808455E-3,-7.5012904E-1,6.9284874E-1,7.13177E-3,-3.0442944E-2,-5.4367214E-1,9.1565174E-1,-7.282648E-2],"split_indices":[1,3,0,4,0,0,0,1,2,0,0,0,0,7,0,0,0,0,6,0,6,4,2,0,0,0,0,0,0,0,0,0,0,0,0],"split_type":[0,0,0,0,0,0,0,0,0,0,0,0,0,0,0,0,0,0,0,0,0,0,0,0,0,0,0,0,0,0,0,0,0,0,0],"sum_hessian":[3.931E3,3.924E3,7E0,3.921E3,3E0,2E0,5E0,1.6E1,3.905E3,2E0,1E0,1E0,1E0,1.1E1,5E0,2.787E3,1.118E3,2E0,9E0,2.419E3,3.68E2,9.02E2,2.16E2,1E0,1E0,3E0,6E0,2.366E3,5.3E1,2.23E2,1.45E2,6.48E2,2.54E2,6.9E1,1.47E2],"tree_param":{"num_deleted":"0","num_feature":"8","num_nodes":"35","size_leaf_vector":"1"}},{"base_weights":[3.54819E-3,1.44316E-2,-3.8772051E0,-3.4117755E-1,1.309173E-1,-2.0282046E-1,-4.6711993E0,-6.84703E-2,-2.9062352E0,2.3445065E0,7.087877E-2,-8.343942E-1,7.4312496E-1,-1.1331431E-1,-1.7871794E0,-1.2316178E-1,5.88095E0,-4.5487714E0,8.75526E-1,4.6467323E0,-1.1101532E0,2.7857548E-2,3.1225376E0,1.9737226E-1,-2.4836369E-1,-2.1157384E0,-1.4326499E-2,9.03958E0,-2.3966262E0,-4.816888E0,1.8916026E0,-2.6627676E0,6.1100063E0,6.0451293E0,-2.9260948E0,-2.9699585E0,3.9726782E0,1.11646205E-1,-1.1025764E0,5.68436E0,7.681212E-1,-7.592799E-1,2.4229238E0,-1.8656842E0,9.327191E-3,1.0751336E0,3.261461E0,2.989689E-1,-1.3774507E0,-1.2352102E0,-3.6743264E0,2.1811914E0,-1.3076575E0,3.0352633E0,8.524632E-1,1.1857885E0,3.578211E0,9.188612E-1,-2.1396146E0,-8.98433E-2,-1.4568161E0,3.590503E0,-6.0596347E-1,-8.7032475E-2,1.526357E-1,-4.6077296E-1,1.5346714E0,2.6770034E0,9.15402E-1,-1.0834029E0,1.9153837E0],"categories":[],"categories_nodes":[],"categories_segments":[],"categories_sizes":[],"default_left":[0,0,0,0,0,0,0,0,0,0,0,0,0,0,0,0,0,0,0,0,0,0,0,0,0,0,0,0,0,0,0,0,0,0,0,0,0,0,0,0,0,0,0,0,0,0,0,0,0,0,0,0,0,0,0,0,0,0,0,0,0,0,0,0,0,0,0,0,0,0,0],"id":16,"left_children":[1,3,5,7,9,11,13,15,17,19,21,-1,-1,23,-1,25,27,29,31,33,35,37,39,-1,-1,41,43,45,47,49,-1,51,53,55,57,59,61,63,65,67,69,-1,-1,-1,-1,-1,-1,-1,-1,-1,-1,-1,-1,-1,-1,-1,-1,-1,-1,-1,-1,-1,-1,-1,-1,-1,-1,-1,-1,-1,-1],"loss_changes":[1.6612724E2,1.6250714E2,3.1144424E1,6.769265E2,3.9255524E2,2.7619886E1,5.2080597E1,2.8575946E2,5.8166876E2,6.255243E2,3.7775433E2,0E0,0E0,2.1979313E0,0E0,1.8842331E2,2.308309E2,2.1953296E2,5.533822E2,5.1541003E2,3.1429715E2,2.690262E2,2.3689752E2,0E0,0E0,2.1086852E2,2.3267511E2,2.1007538E1,2.6918608E1,2.822461E2,0E0,3.3495483E2,1.284324E2,4.4519934E2,2.2335898E2,1.1942847E2,4.554048E2,4.220045E2,5.359851E2,1.3480981E2,5.641959E2,0E0,0E0,0E0,0E0,0E0,0E0,0E0,0E0,0E0,0E0,0E0,0E0,0E0,0E0,0E0,0E0,0E0,0E0,0E0,0E0,0E0,0E0,0E0,0E0,0E0,0E0,0E0,0E0,0E0,0E0],"parents":[2147483647,0,0,1,1,2,2,3,3,4,4,5,5,6,6,7,7,8,8,9,9,10,10,13,13,15,15,16,16,17,17,18,18,19,19,20,20,21,21,22,22,25,25,26,26,27,27,28,28,29,29,31,31,32,32,33,33,34,34,35,35,36,36,37,37,38,38,39,39,40,40],"right_children":[2,4,6,8,10,12,14,16,18,20,22,-1,-1,24,-1,26,28,30,32,34,36,38,40,-1,-1,42,44,46,48,50,-1,52,54,56,58,60,62,64,66,68,70,-1,-1,-1,-1,-1,-1,-1,-1,-1,-1,-1,-1,-1,-1,-1,-1,-1,-1,-1,-1,-1,-1,-1,-1,-1,-1,-1,-1,-1,-1],"split_conditions":[1.08899994E2,8.940584E0,2.0436417E1,8.2635E0,9.586418E0,2.4E1,8.448617E1,8.7E1,2E-1,2.6925497E1,3.4411978E2,-8.343942E-1,7.4312496E-1,4.3333332E1,-1.7871794E0,1.5E1,5.6E1,7.6333336E1,3.7E1,1.0400001E1,4.7E1,3.161397E2,3.4E1,1.9737226E-1,-2.4836369E-1,2.6333334E1,1.2E1,3.3E1,5.9E1,5.5E1,1.8916026E0,2.5656666E1,4.8E1,4.6E1,3.3E1,2E-1,4.3333332E1,1.7987123E2,6.1333332E1,3.512539E2,1.4938667E1,-7.592799E-1,2.4229238E0,-1.8656842E0,9.327191E-3,1.0751336E0,3.261461E0,2.989689E-1,-1.3774507E0,-1.2352102E0,-3.6743264E0,2.1811914E0,-1.3076575E0,3.0352633E0,8.524632E-1,1.1857885E0,3.578211E0,9.188612E-1,-2.1396146E0,-8.98433E-2,-1.4568161E0,3.590503E0,-6.0596347E-1,-8.7032475E-2,1.526357E-1,-4.6077296E-1,1.5346714E0,2.6770034E0,9.15402E-1,-1.0834029E0,1.9153837E0],"split_indices":[5,4,4,4,4,0,7,3,5,6,7,0,0,0,0,2,2,0,3,5,3,7,2,0,0,0,1,1,0,2,0,7,3,1,2,5,0,7,0,7,4,0,0,0,0,0,0,0,0,0,0,0,0,0,0,0,0,0,0,0,0,0,0,0,0,0,0,0,0,0,0],"split_type":[0,0,0,0,0,0,0,0,0,0,0,0,0,0,0,0,0,0,0,0,0,0,0,0,0,0,0,0,0,0,0,0,0,0,0,0,0,0,0,0,0,0,0,0,0,0,0,0,0,0,0,0,0,0,0,0,0,0,0,0,0,0,0,0,0,0,0,0,0,0,0],"sum_hessian":[3.931E3,3.921E3,1E1,9.67E2,2.954E3,2E0,8E0,8.75E2,9.2E1,7.7E1,2.877E3,1E0,1E0,2E0,6E0,8.68E2,7E0,6.4E1,2.8E1,4.6E1,3.1E1,2.838E3,3.9E1,1E0,1E0,4.4E1,8.24E2,5E0,2E0,6.3E1,1E0,1.7E1,1.1E1,3.9E1,7E0,2.3E1,8E0,2.643E3,1.95E2,1.8E1,2.1E1,4.3E1,1E0,5E0,8.19E2,2E0,3E0,1E0,1E0,5.9E1,4E0,2E0,1.5E1,4E0,7E0,3E1,9E0,3E0,4E0,1E1,1.3E1,3E0,5E0,1.314E3,1.329E3,1.83E2,1.2E1,7E0,1.1E1,1.2E1,9E0],"tree_param":{"num_deleted":"0","num_feature":"8","num_nodes":"71","size_leaf_vector":"1"}},{"base_weights":[5.8975276E-3,-3.0305357E0,1.9077677E-2,-4.221933E-1,-3.5593095E0,3.5483336E0,9.6010126E-4,3.768969E-1,-4.201419E-1,-5.5936396E-1,-1.2152281E0,1.8674794E0,1.618564E0,-9.690571E-1,4.0859055E-2,3.8151305E0,-1.622258E0,-1.702039E-1,-3.0952797E0,3.5872042E-1,-1.2051938E-1,5.0766926E0,2.0296097E-2,1.2919728E0,-1.2543331E0,9.1718006E-1,-1.6091784E0,-1.7089657E0,-7.988546E0,8.4431775E-2,1.6350754E0,-1.358342E-2,-1.5227615E0,1.9560394E0,4.3796313E-1,8.3629996E-2,-7.4496746E-2,1.0068543E0,-3.4223932E-1,-6.603209E-1,8.998658E-1,-1.505632E0,-9.500526E-2,-5.7377416E-1,-2.552691E0,-1.9118528E-1,1.468779E-1,-1.3665782E0,5.8412635E-1,-1.1493486E-2,1.7025784E0,-5.7418543E-1,2.0794415E0],"categories":[],"categories_nodes":[],"categories_segments":[],"categories_sizes":[],"default_left":[0,0,0,0,0,0,0,0,0,0,0,0,0,0,0,0,0,0,0,0,0,0,0,0,0,0,0,0,0,0,0,0,0,0,0,0,0,0,0,0,0,0,0,0,0,0,0,0,0,0,0,0,0],"id":17,"left_children":[1,3,5,7,9,11,13,-1,-1,-1,-1,15,-1,17,19,21,23,25,27,29,31,33,35,-1,-1,37,39,41,43,45,47,49,51,-1,-1,-1,-1,-1,-1,-1,-1,-1,-1,-1,-1,-1,-1,-1,-1,-1,-1,-1,-1],"loss_changes":[1.5741899E2,2.1944077E1,2.5039175E2,8.327679E0,4.1076508E0,5.2011246E1,1.508639E2,0E0,0E0,0E0,0E0,8.775062E1,0E0,2.6104828E2,1.9209532E2,3.8196312E1,9.386132E1,1.7828902E2,2.7125922E2,4.4132504E2,3.7245538E2,2.1805313E1,2.77514E-1,0E0,0E0,3.3009033E2,1.402677E2,1.5508887E2,1.218457E1,3.0412735E2,4.3958533E2,3.2503574E2,5.9533563E2,0E0,0E0,0E0,0E0,0E0,0E0,0E0,0E0,0E0,0E0,0E0,0E0,0E0,0E0,0E0,0E0,0E0,0E0,0E0,0E0],"parents":[2147483647,0,0,1,1,2,2,3,3,4,4,5,5,6,6,11,11,13,13,14,14,15,15,16,16,17,17,18,18,19,19,20,20,21,21,22,22,25,25,26,26,27,27,28,28,29,29,30,30,31,31,32,32],"right_children":[2,4,6,8,10,12,14,-1,-1,-1,-1,16,-1,18,20,22,24,26,28,30,32,34,36,-1,-1,38,40,42,44,46,48,50,52,-1,-1,-1,-1,-1,-1,-1,-1,-1,-1,-1,-1,-1,-1,-1,-1,-1,-1,-1,-1],"split_conditions":[1.6666666E0,1.4588885E1,7E0,1.1226001E1,7.379049E1,1.6686419E1,1.6E1,3.768969E-1,-4.201419E-1,-5.5936396E-1,-1.2152281E0,1.4E1,1.618564E0,2.2333334E1,3.2E1,5.2E0,9.586418E0,1.7946833E1,3.0154163E1,4E1,3.1954178E2,3.070775E2,5E0,1.2919728E0,-1.2543331E0,3.0680957E2,2.2E1,1.4345898E1,1E1,2.2027197E2,1.9E1,3.191101E2,6.7E1,1.9560394E0,4.3796313E-1,8.3629996E-2,-7.4496746E-2,1.0068543E0,-3.4223932E-1,-6.603209E-1,8.998658E-1,-1.505632E0,-9.500526E-2,-5.7377416E-1,-2.552691E0,-1.9118528E-1,1.468779E-1,-1.3665782E0,5.8412635E-1,-1.1493486E-2,1.7025784E0,-5.7418543E-1,2.0794415E0],"split_indices":[0,6,3,4,7,4,3,0,0,0,0,2,0,0,2,5,4,4,6,1,7,7,0,0,0,7,2,6,3,7,2,7,3,0,0,0,0,0,0,0,0,0,0,0,0,0,0,0,0,0,0,0,0],"split_type":[0,0,0,0,0,0,0,0,0,0,0,0,0,0,0,0,0,0,0,0,0,0,0,0,0,0,0,0,0,0,0,0,0,0,0,0,0,0,0,0,0,0,0,0,0,0,0,0,0,0,0,0,0],"sum_hessian":[3.931E3,1.6E1,3.915E3,3E0,1.3E1,1.9E1,3.896E3,1E0,2E0,4E0,9E0,1.1E1,8E0,1.53E2,3.743E3,7E0,4E0,1.12E2,4.1E1,1.26E3,2.483E3,5E0,2E0,1E0,3E0,6.4E1,4.8E1,3.3E1,8E0,1.038E3,2.22E2,2.308E3,1.75E2,3E0,2E0,1E0,1E0,2.9E1,3.5E1,4.3E1,5E0,9E0,2.4E1,1E0,7E0,3.73E2,6.65E2,1E1,2.12E2,2.299E3,9E0,1.68E2,7E0],"tree_param":{"num_deleted":"0","num_feature":"8","num_nodes":"53","size_leaf_vector":"1"}},{"base_weights":[4.3287766E-3,-8.419056E-3,2.378862E0,1.8685196E-2,-3.2953935E0,3.2277088E0,-2.0356646E0,-1.2648496E-2,1.4705064E0,-9.282543E0,-1.2476898E0,7.563875E0,1.8562171E0,-7.846844E-1,-4.437218E-2,5.019621E-3,-4.790971E0,6.118971E0,5.060281E-1,-1.1439746E1,-1.8739573E0,1.1328726E0,-3.1990511E0,2.81697E0,3.1287003E-1,-1.595726E-1,1.254832E0,-6.9735455E-3,3.778451E0,9.955025E-1,-6.419051E0,8.616085E-1,8.135755E0,-5.202937E-1,3.234259E0,-3.7255087E0,-9.820004E-1,-8.522038E-1,8.922959E-3,-4.103818E0,3.334416E0,2.895841E0,-4.456187E0,1.0582232E0,-1.485291E0,1.8683043E-3,-1.3577878E0,-2.127738E-1,2.5153067E0,-7.1051246E-1,-2.2518373E0,4.208924E-1,-1.955784E-1,3.9570231E0,1.2255961E0,-7.66329E-1,8.281016E-1,-5.585904E-1,1.7188777E0,-1.7142376E0,1.0906563E-1,-7.6378846E-1,2.0096796E0,1.4225292E0,-1.1940079E-1,-1.7099086E0,-1.6327372E-1,4.9142095E-1,-4.501053E-1],"categories":[],"categories_nodes":[],"categories_segments":[],"categories_sizes":[],"default_left":[0,0,0,0,0,0,0,0,0,0,0,0,0,0,0,0,0,0,0,0,0,0,0,0,0,0,0,0,0,0,0,0,0,0,0,0,0,0,0,0,0,0,0,0,0,0,0,0,0,0,0,0,0,0,0,0,0,0,0,0,0,0,0,0,0,0,0,0,0],"id":18,"left_children":[1,3,5,7,9,11,13,15,17,19,21,23,25,-1,-1,27,29,31,33,35,37,39,41,-1,-1,43,-1,45,47,-1,49,51,53,55,57,-1,-1,-1,-1,59,61,63,65,67,-1,-1,-1,-1,-1,-1,-1,-1,-1,-1,-1,-1,-1,-1,-1,-1,-1,-1,-1,-1,-1,-1,-1,-1,-1],"loss_changes":[1.19042274E2,3.4858554E2,8.5262924E1,1.7656886E2,3.807354E2,9.300607E1,3.9923515E0,3.2083508E2,3.6453778E2,1.0641699E2,1.1975755E2,3.7837143E1,7.101517E1,0E0,0E0,1.7140851E2,2.0613715E2,1.414317E2,1.9488573E2,7.3011475E0,5.6055384E0,1.5202945E2,1.2017389E2,0E0,0E0,5.775372E1,0E0,2.2528983E2,2.5398543E2,0E0,3.50632E1,5.011525E0,1.508363E2,3.4738696E2,2.5228719E2,0E0,0E0,0E0,0E0,3.0852737E1,1.9511679E2,2.012778E1,5.527234E1,1.4326322E1,0E0,0E0,0E0,0E0,0E0,0E0,0E0,0E0,0E0,0E0,0E0,0E0,0E0,0E0,0E0,0E0,0E0,0E0,0E0,0E0,0E0,0E0,0E0,0E0,0E0],"parents":[2147483647,0,0,1,1,2,2,3,3,4,4,5,5,6,6,7,7,8,8,9,9,10,10,11,11,12,12,15,15,16,16,17,17,18,18,19,19,20,20,21,21,22,22,25,25,27,27,28,28,30,30,31,31,32,32,33,33,34,34,39,39,40,40,41,41,42,42,43,43],"right_children":[2,4,6,8,10,12,14,16,18,20,22,24,26,-1,-1,28,30,32,34,36,38,40,42,-1,-1,44,-1,46,48,-1,50,52,54,56,58,-1,-1,-1,-1,60,62,64,66,68,-1,-1,-1,-1,-1,-1,-1,-1,-1,-1,-1,-1,-1,-1,-1,-1,-1,-1,-1,-1,-1,-1,-1,-1,-1],"split_conditions":[1.03E2,8.0666664E1,2.6659552E2,6.9E1,8.1666664E1,1.07E2,7.5E1,6.8E1,7E1,3.1814502E2,2E-1,8.6E1,1.22E2,-7.846844E-1,-4.437218E-2,6.7333336E1,1.7880167E1,1.662249E1,8.2E1,7.9E1,8.1E1,8.2666664E1,8.9E1,2.81697E0,3.1287003E-1,1.17E2,1.254832E0,6.7E1,1.8769749E1,9.955025E-1,6.9E1,2.2084335E1,1.7727943E1,8.3E1,4.5E1,-3.7255087E0,-9.820004E-1,-8.522038E-1,8.922959E-3,7E1,1.7576E1,8.8E1,3.033687E2,1.19E2,-1.485291E0,